{"learner":{"attributes":{"niter":"299"},"gradient_booster":{"model":{"gbtree_model_param":{"num_trees":"300","size_leaf_vector":"0"},"tree_info":[0,0,0,0,0,0,0,0,0,0,0,0,0,0,0,0,0,0,0,0,0,0,0,0,0,0,0,0,0,0,0,0,0,0,0,0,0,0,0,0,0,0,0,0,0,0,0,0,0,0,0,0,0,0,0,0,0,0,0,0,0,0,0,0,0,0,0,0,0,0,0,0,0,0,0,0,0,0,0,0,0,0,0,0,0,0,0,0,0,0,0,0,0,0,0,0,0,0,0,0,0,0,0,0,0,0,0,0,0,0,0,0,0,0,0,0,0,0,0,0,0,0,0,0,0,0,0,0,0,0,0,0,0,0,0,0,0,0,0,0,0,0,0,0,0,0,0,0,0,0,0,0,0,0,0,0,0,0,0,0,0,0,0,0,0,0,0,0,0,0,0,0,0,0,0,0,0,0,0,0,0,0,0,0,0,0,0,0,0,0,0,0,0,0,0,0,0,0,0,0,0,0,0,0,0,0,0,0,0,0,0,0,0,0,0,0,0,0,0,0,0,0,0,0,0,0,0,0,0,0,0,0,0,0,0,0,0,0,0,0,0,0,0,0,0,0,0,0,0,0,0,0,0,0,0,0,0,0,0,0,0,0,0,0,0,0,0,0,0,0,0,0,0,0,0,0,0,0,0,0,0,0,0,0,0,0,0,0,0,0,0,0,0,0,0,0,0,0,0,0],"trees":[{"base_weights":[-9.768455E-1,-1E0,1E0,-1E0,-3.2277423E-1,1E0,0E0],"categories":[],"categories_nodes":[],"categories_segments":[],"categories_sizes":[],"default_left":[true,true,true,false,false,false,false],"id":0,"left_children":[1,3,5,-1,-1,-1,-1],"loss_changes":[9.078949E3,3.8833594E2,3.5626904E2,0E0,0E0,0E0,0E0],"parents":[2147483647,0,0,1,1,2,2],"right_children":[2,4,6,-1,-1,-1,-1],"split_conditions":[2.2454443E0,9.2578816E-1,5.800294E4,-5E-2,-1.6138712E-2,5E-2,0E0],"split_indices":[0,0,4,0,0,0,0],"split_type":[0,0,0,0,0,0,0],"sum_hessian":[3.531883E4,3.494388E4,3.7495093E2,3.409598E4,8.478963E2,2.342804E2,1.4067055E2],"tree_param":{"num_deleted":"0","num_feature":"7","num_nodes":"7","size_leaf_vector":"0"}},{"base_weights":[-9.6705186E-1,-1E0,1E0,-1E0,-2.800428E-1,1E0,0E0],"categories":[],"categories_nodes":[],"categories_segments":[],"categories_sizes":[],"default_left":[true,true,true,false,false,false,false],"id":1,"left_children":[1,3,5,-1,-1,-1,-1],"loss_changes":[8.985061E3,4.7622266E2,2.4227588E2,0E0,0E0,0E0,0E0],"parents":[2147483647,0,0,1,1,2,2],"right_children":[2,4,6,-1,-1,-1,-1],"split_conditions":[2.6387222E0,9.185054E-1,5.8549062E4,-5E-2,-1.400214E-2,5E-2,0E0],"split_indices":[0,0,4,0,0,0,0],"split_type":[0,0,0,0,0,0,0],"sum_hessian":[3.3931785E4,3.3612992E4,3.187925E2,3.2693316E4,9.196751E2,2.254019E2,9.3390625E1],"tree_param":{"num_deleted":"0","num_feature":"7","num_nodes":"7","size_leaf_vector":"0"}},{"base_weights":[-9.569591E-1,-1E0,1E0,-1E0,-2.6291487E-1,1E0,0E0],"categories":[],"categories_nodes":[],"categories_segments":[],"categories_sizes":[],"default_left":[true,true,true,false,false,false,false],"id":2,"left_children":[1,3,5,-1,-1,-1,-1],"loss_changes":[9.156414E3,4.8945703E2,2.4386084E2,0E0,0E0,0E0,0E0],"parents":[2147483647,0,0,1,1,2,2],"right_children":[2,4,6,-1,-1,-1,-1],"split_conditions":[2.6387222E0,9.2461765E-1,5.607997E4,-5E-2,-1.3145744E-2,5E-2,0E0],"split_indices":[0,0,4,0,0,0,0],"split_type":[0,0,0,0,0,0,0],"sum_hessian":[3.2603023E4,3.2271248E4,3.317769E2,3.1369502E4,9.0174493E2,2.3789084E2,9.3886055E1],"tree_param":{"num_deleted":"0","num_feature":"7","num_nodes":"7","size_leaf_vector":"0"}},{"base_weights":[-9.513255E-1,-1E0,1E0,-1E0,-2.888449E-1,1E0,0E0],"categories":[],"categories_nodes":[],"categories_segments":[],"categories_sizes":[],"default_left":[true,true,true,false,false,false,false],"id":3,"left_children":[1,3,5,-1,-1,-1,-1],"loss_changes":[8.844943E3,4.1321875E2,3.2572607E2,0E0,0E0,0E0,0E0],"parents":[2147483647,0,0,1,1,2,2],"right_children":[2,4,6,-1,-1,-1,-1],"split_conditions":[2.2457814E0,9.246249E-1,5.7964312E4,-5E-2,-1.44422455E-2,5E-2,0E0],"split_indices":[0,0,4,0,0,0,0],"split_type":[0,0,0,0,0,0,0],"sum_hessian":[3.1200594E4,3.08068E4,3.9379224E2,2.9988764E4,8.1803735E2,2.5701443E2,1.3677779E2],"tree_param":{"num_deleted":"0","num_feature":"7","num_nodes":"7","size_leaf_vector":"0"}},{"base_weights":[-9.416937E-1,-1E0,1E0,-1E0,-2.4735092E-1,1E0,0E0],"categories":[],"categories_nodes":[],"categories_segments":[],"categories_sizes":[],"default_left":[true,true,true,false,false,false,false],"id":4,"left_children":[1,3,5,-1,-1,-1,-1],"loss_changes":[8.689508E3,4.967168E2,2.6279004E2,0E0,0E0,0E0,0E0],"parents":[2147483647,0,0,1,1,2,2],"right_children":[2,4,6,-1,-1,-1,-1],"split_conditions":[2.6379175E0,9.234912E-1,5.7648773E4,-5E-2,-1.2367546E-2,5E-2,0E0],"split_indices":[0,0,4,0,0,0,0],"split_type":[0,0,0,0,0,0,0],"sum_hessian":[2.9968299E4,2.9616555E4,3.5174243E2,2.8738945E4,8.776109E2,2.5314749E2,9.859493E1],"tree_param":{"num_deleted":"0","num_feature":"7","num_nodes":"7","size_leaf_vector":"0"}},{"base_weights":[-9.339354E-1,-1E0,1E0,-1E0,-2.4110909E-1,1E0,0E0],"categories":[],"categories_nodes":[],"categories_segments":[],"categories_sizes":[],"default_left":[true,true,true,false,false,false,false],"id":5,"left_children":[1,3,5,-1,-1,-1,-1],"loss_changes":[8.621838E3,4.595039E2,3.577893E2,0E0,0E0,0E0,0E0],"parents":[2147483647,0,0,1,1,2,2],"right_children":[2,4,6,-1,-1,-1,-1],"split_conditions":[2.2132096E0,9.2460096E-1,5.621942E4,-5E-2,-1.2055455E-2,5E-2,0E0],"split_indices":[0,0,4,0,0,0,0],"split_type":[0,0,0,0,0,0,0],"sum_hessian":[2.8735326E4,2.8310354E4,4.2497272E2,2.7511752E4,7.9860126E2,2.7804498E2,1.4692775E2],"tree_param":{"num_deleted":"0","num_feature":"7","num_nodes":"7","size_leaf_vector":"0"}},{"base_weights":[-9.2608017E-1,-1E0,1E0,-1E0,-3.1039706E-1,1E0,0E0],"categories":[],"categories_nodes":[],"categories_segments":[],"categories_sizes":[],"default_left":[true,true,true,false,false,false,false],"id":6,"left_children":[1,3,5,-1,-1,-1,-1],"loss_changes":[8.408059E3,4.746875E2,3.4650317E2,0E0,0E0,0E0,0E0],"parents":[2147483647,0,0,1,1,2,2],"right_children":[2,4,6,-1,-1,-1,-1],"split_conditions":[2.246189E0,7.861395E-1,5.6233594E4,-5E-2,-1.5519853E-2,5E-2,0E0],"split_indices":[0,0,4,0,0,0,0],"split_type":[0,0,0,0,0,0,0],"sum_hessian":[2.7606078E4,2.717896E4,4.271163E2,2.6179676E4,9.9928546E2,2.837646E2,1.4335172E2],"tree_param":{"num_deleted":"0","num_feature":"7","num_nodes":"7","size_leaf_vector":"0"}},{"base_weights":[-9.177244E-1,-1E0,1E0,-1E0,-2.5711176E-1,1E0,0E0],"categories":[],"categories_nodes":[],"categories_segments":[],"categories_sizes":[],"default_left":[true,true,true,false,false,false,false],"id":7,"left_children":[1,3,5,-1,-1,-1,-1],"loss_changes":[8.397832E3,4.313047E2,3.328108E2,0E0,0E0,0E0,0E0],"parents":[2147483647,0,0,1,1,2,2],"right_children":[2,4,6,-1,-1,-1,-1],"split_conditions":[2.2332683E0,9.185054E-1,5.772823E4,-5E-2,-1.2855588E-2,5E-2,0E0],"split_indices":[0,0,4,0,0,0,0],"split_type":[0,0,0,0,0,0,0],"sum_hessian":[2.6430473E4,2.5990176E4,4.402968E2,2.520785E4,7.823274E2,2.9998666E2,1.4031013E2],"tree_param":{"num_deleted":"0","num_feature":"7","num_nodes":"7","size_leaf_vector":"0"}},{"base_weights":[-9.084298E-1,-1E0,1E0,-1E0,-2.9277351E-1,0E0,1E0],"categories":[],"categories_nodes":[],"categories_segments":[],"categories_sizes":[],"default_left":[true,true,true,false,false,false,false],"id":8,"left_children":[1,3,5,-1,-1,-1,-1],"loss_changes":[8.312219E3,5.0261523E2,2.69312E2,0E0,0E0,0E0,0E0],"parents":[2147483647,0,0,1,1,2,2],"right_children":[2,4,6,-1,-1,-1,-1],"split_conditions":[2.4528255E0,7.851058E-1,6.1814137E0,-5E-2,-1.4638676E-2,0E0,5E-2],"split_indices":[0,0,6,0,0,0,0],"split_type":[0,0,0,0,0,0,0],"sum_hessian":[2.5393273E4,2.497997E4,4.1330365E2,2.397408E4,1.0058893E3,9.640172E1,3.1690192E2],"tree_param":{"num_deleted":"0","num_feature":"7","num_nodes":"7","size_leaf_vector":"0"}},{"base_weights":[-8.9915705E-1,-1E0,1E0,-1E0,-1.8872744E-1,0E0,1E0],"categories":[],"categories_nodes":[],"categories_segments":[],"categories_sizes":[],"default_left":[true,true,true,false,false,false,false],"id":9,"left_children":[1,3,5,-1,-1,-1,-1],"loss_changes":[8.201762E3,5.07125E2,3.4899707E2,0E0,0E0,0E0,0E0],"parents":[2147483647,0,0,1,1,2,2],"right_children":[2,4,6,-1,-1,-1,-1],"split_conditions":[2.2457664E0,9.2579085E-1,6.181534E0,-5E-2,-9.436372E-3,0E0,5E-2],"split_indices":[0,0,6,0,0,0,0],"split_type":[0,0,0,0,0,0,0],"sum_hessian":[2.4348553E4,2.388165E4,4.6690314E2,2.3110613E4,7.71036E2,1.2024014E2,3.46663E2],"tree_param":{"num_deleted":"0","num_feature":"7","num_nodes":"7","size_leaf_vector":"0"}},{"base_weights":[-8.872167E-1,-9.999312E-1,1E0,-1E0,-1.6604826E-1,1E0,3.439188E-5],"categories":[],"categories_nodes":[],"categories_segments":[],"categories_sizes":[],"default_left":[true,true,true,false,false,false,false],"id":10,"left_children":[1,3,5,-1,-1,-1,-1],"loss_changes":[8.268129E3,5.314707E2,3.6561963E2,0E0,0E0,0E0,0E0],"parents":[2147483647,0,0,1,1,2,2],"right_children":[2,4,6,-1,-1,-1,-1],"split_conditions":[2.2453918E0,9.185054E-1,5.8129266E4,-5E-2,-8.302413E-3,5E-2,1.719594E-6],"split_indices":[0,0,4,0,0,0,0],"split_type":[0,0,0,0,0,0,0],"sum_hessian":[2.3303367E4,2.2817984E4,4.8538358E2,2.2053363E4,7.646206E2,3.406425E2,1.4474109E2],"tree_param":{"num_deleted":"0","num_feature":"7","num_nodes":"7","size_leaf_vector":"0"}},{"base_weights":[-8.789379E-1,-9.9183965E-1,1E0,-1E0,-2.4010025E-1,1E0,4.0801764E-3],"categories":[],"categories_nodes":[],"categories_segments":[],"categories_sizes":[],"default_left":[true,true,true,false,false,false,false],"id":11,"left_children":[1,3,5,-1,-1,-1,-1],"loss_changes":[8.1103613E3,5.7721094E2,2.142002E2,0E0,0E0,0E0,0E0],"parents":[2147483647,0,0,1,1,2,2],"right_children":[2,4,6,-1,-1,-1,-1],"split_conditions":[2.730598E0,7.861405E-1,6.0922074E4,-5E-2,-1.20050125E-2,5E-2,2.0400881E-4],"split_indices":[0,0,4,0,0,0,0],"split_type":[0,0,0,0,0,0,0],"sum_hessian":[2.2305297E4,2.1892717E4,4.1258112E2,2.0889871E4,1.0028456E3,3.2677142E2,8.580971E1],"tree_param":{"num_deleted":"0","num_feature":"7","num_nodes":"7","size_leaf_vector":"0"}},{"base_weights":[-8.7057185E-1,-9.8713344E-1,1E0,-1E0,-2.6392728E-1,1E0,6.4332783E-3],"categories":[],"categories_nodes":[],"categories_segments":[],"categories_sizes":[],"default_left":[true,true,true,false,false,false,false],"id":12,"left_children":[1,3,5,-1,-1,-1,-1],"loss_changes":[7.8825693E3,5.829746E2,2.4746411E2,0E0,0E0,0E0,0E0],"parents":[2147483647,0,0,1,1,2,2],"right_children":[2,4,6,-1,-1,-1,-1],"split_conditions":[2.6387222E0,2.855E2,5.800294E4,-5E-2,-1.3196364E-2,5E-2,3.2166392E-4],"split_indices":[0,1,4,0,0,0,0],"split_type":[0,0,0,0,0,0,0],"sum_hessian":[2.1412719E4,2.0970719E4,4.420011E2,1.988747E4,1.0832476E3,3.4182767E2,1.00173416E2],"tree_param":{"num_deleted":"0","num_feature":"7","num_nodes":"7","size_leaf_vector":"0"}},{"base_weights":[-8.599019E-1,-9.8103917E-1,1E0,-1E0,-1.819031E-1,1E0,9.480417E-3],"categories":[],"categories_nodes":[],"categories_segments":[],"categories_sizes":[],"default_left":[true,true,true,false,false,false,false],"id":13,"left_children":[1,3,5,-1,-1,-1,-1],"loss_changes":[7.809871E3,6.308262E2,2.2800757E2,0E0,0E0,0E0,0E0],"parents":[2147483647,0,0,1,1,2,2],"right_children":[2,4,6,-1,-1,-1,-1],"split_conditions":[2.7087889E0,7.861405E-1,5.8018836E4,-5E-2,-9.095155E-3,5E-2,4.7402084E-4],"split_indices":[0,0,4,0,0,0,0],"split_type":[0,0,0,0,0,0,0],"sum_hessian":[2.054104E4,2.00959E4,4.451382E2,1.9142072E4,9.538289E2,3.5223196E2,9.290625E1],"tree_param":{"num_deleted":"0","num_feature":"7","num_nodes":"7","size_leaf_vector":"0"}},{"base_weights":[-8.521367E-1,-9.819127E-1,1E0,-1E0,-2.2510956E-1,1E0,9.043664E-3],"categories":[],"categories_nodes":[],"categories_segments":[],"categories_sizes":[],"default_left":[true,true,true,false,false,false,false],"id":14,"left_children":[1,3,5,-1,-1,-1,-1],"loss_changes":[7.7126855E3,5.2087305E2,3.4797095E2,0E0,0E0,0E0,0E0],"parents":[2147483647,0,0,1,1,2,2],"right_children":[2,4,6,-1,-1,-1,-1],"split_conditions":[2.246189E0,7.8612256E-1,5.628022E4,-5E-2,-1.12554785E-2,5E-2,4.521832E-4],"split_indices":[0,0,4,0,0,0,0],"split_type":[0,0,0,0,0,0,0],"sum_hessian":[1.9669967E4,1.9141973E4,5.279943E2,1.826341E4,8.7856195E2,3.8561722E2,1.4237712E2],"tree_param":{"num_deleted":"0","num_feature":"7","num_nodes":"7","size_leaf_vector":"0"}},{"base_weights":[-8.3929485E-1,-9.778115E-1,1E0,-1E0,-2.1887921E-1,1E0,1.1094242E-2],"categories":[],"categories_nodes":[],"categories_segments":[],"categories_sizes":[],"default_left":[true,true,true,false,false,false,false],"id":15,"left_children":[1,3,5,-1,-1,-1,-1],"loss_changes":[7.8256543E3,5.160781E2,3.5443652E2,0E0,0E0,0E0,0E0],"parents":[2147483647,0,0,1,1,2,2],"right_children":[2,4,6,-1,-1,-1,-1],"split_conditions":[2.2454846E0,7.853499E-1,5.621942E4,-5E-2,-1.094396E-2,5E-2,5.5471214E-4],"split_indices":[0,0,4,0,0,0,0],"split_type":[0,0,0,0,0,0,0],"sum_hessian":[1.888317E4,1.833149E4,5.516801E2,1.7470234E4,8.6125555E2,4.0710504E2,1.445751E2],"tree_param":{"num_deleted":"0","num_feature":"7","num_nodes":"7","size_leaf_vector":"0"}},{"base_weights":[-8.2497466E-1,-9.908483E-1,1E0,-1E0,-3.5391694E-1,1E0,4.5758486E-3],"categories":[],"categories_nodes":[],"categories_segments":[],"categories_sizes":[],"default_left":[true,true,true,false,false,false,false],"id":16,"left_children":[1,3,5,-1,-1,-1,-1],"loss_changes":[7.782752E3,2.0978125E2,1.046615E3,0E0,0E0,0E0,0E0],"parents":[2147483647,0,0,1,1,2,2],"right_children":[2,4,6,-1,-1,-1,-1],"split_conditions":[1.2661602E0,7.7969694E-1,5.6126125E4,-5E-2,-1.7695848E-2,5E-2,2.2879243E-4],"split_indices":[0,0,4,0,0,0,0],"split_type":[0,0,0,0,0,0,0],"sum_hessian":[1.8087895E4,1.716307E4,9.2482336E2,1.6655668E4,5.0740253E2,5.134472E2,4.1137616E2],"tree_param":{"num_deleted":"0","num_feature":"7","num_nodes":"7","size_leaf_vector":"0"}},{"base_weights":[-8.213931E-1,-9.621007E-1,1E0,-1E0,-1.3290377E-1,1E0,1.8949658E-2],"categories":[],"categories_nodes":[],"categories_segments":[],"categories_sizes":[],"default_left":[true,true,true,false,false,false,false],"id":17,"left_children":[1,3,5,-1,-1,-1,-1],"loss_changes":[7.351536E3,6.699678E2,2.2918604E2,0E0,0E0,0E0,0E0],"parents":[2147483647,0,0,1,1,2,2],"right_children":[2,4,6,-1,-1,-1,-1],"split_conditions":[2.730864E0,2.855E2,5.6233594E4,-5E-2,-6.6451887E-3,5E-2,9.474829E-4],"split_indices":[0,1,4,0,0,0,0],"split_type":[0,0,0,0,0,0,0],"sum_hessian":[1.7343924E4,1.6855248E4,4.886743E2,1.5931632E4,9.2361743E2,3.9687173E2,9.1802536E1],"tree_param":{"num_deleted":"0","num_feature":"7","num_nodes":"7","size_leaf_vector":"0"}},{"base_weights":[-8.0885845E-1,-9.5930195E-1,1E0,-1E0,-1.4022999E-1,1E0,2.0349026E-2],"categories":[],"categories_nodes":[],"categories_segments":[],"categories_sizes":[],"default_left":[true,true,true,false,false,false,false],"id":18,"left_children":[1,3,5,-1,-1,-1,-1],"loss_changes":[7.3991562E3,6.438213E2,2.634297E2,0E0,0E0,0E0,0E0],"parents":[2147483647,0,0,1,1,2,2],"right_children":[2,4,6,-1,-1,-1,-1],"split_conditions":[2.6387222E0,2.855E2,5.8241555E4,-5E-2,-7.0114993E-3,5E-2,1.0174513E-3],"split_indices":[0,1,4,0,0,0,0],"split_type":[0,0,0,0,0,0,0],"sum_hessian":[1.660495E4,1.60804E4,5.2454926E2,1.5173049E4,9.073513E2,4.2610446E2,9.844478E1],"tree_param":{"num_deleted":"0","num_feature":"7","num_nodes":"7","size_leaf_vector":"0"}},{"base_weights":[-8.022689E-1,-9.8046064E-1,1E0,-1E0,-3.0056205E-1,1E0,9.769678E-3],"categories":[],"categories_nodes":[],"categories_segments":[],"categories_sizes":[],"default_left":[true,true,true,false,false,false,false],"id":19,"left_children":[1,3,5,-1,-1,-1,-1],"loss_changes":[7.1034395E3,2.2792773E2,1.0414131E3,0E0,0E0,0E0,0E0],"parents":[2147483647,0,0,1,1,2,2],"right_children":[2,4,6,-1,-1,-1,-1],"split_conditions":[1.2644575E0,7.6334524E-1,5.452309E4,-5E-2,-1.5028103E-2,5E-2,4.884839E-4],"split_indices":[0,0,4,0,0,0,0],"split_type":[0,0,0,0,0,0,0],"sum_hessian":[1.5948936E4,1.50192E4,9.2973566E2,1.4540526E4,4.7867297E2,5.3520703E2,3.9452863E2],"tree_param":{"num_deleted":"0","num_feature":"7","num_nodes":"7","size_leaf_vector":"0"}},{"base_weights":[-7.8523624E-1,-9.845779E-1,1E0,-9.995195E-1,-4.0622252E-1,1E0,7.711053E-3],"categories":[],"categories_nodes":[],"categories_segments":[],"categories_sizes":[],"default_left":[true,true,true,false,false,false,false],"id":20,"left_children":[1,3,5,-1,-1,-1,-1],"loss_changes":[7.403591E3,1.229668E2,1.1773914E3,0E0,0E0,0E0,0E0],"parents":[2147483647,0,0,1,1,2,2],"right_children":[2,4,6,-1,-1,-1,-1],"split_conditions":[1.1425741E0,7.8510714E-1,5.5355812E4,-4.9975976E-2,-2.0311126E-2,5E-2,3.8555264E-4],"split_indices":[0,0,4,0,0,0,0],"split_type":[0,0,0,0,0,0,0],"sum_hessian":[1.5318653E4,1.4275671E4,1.0429828E3,1.3915441E4,3.602293E2,5.877853E2,4.5519754E2],"tree_param":{"num_deleted":"0","num_feature":"7","num_nodes":"7","size_leaf_vector":"0"}},{"base_weights":[-7.7710754E-1,-9.822676E-1,1E0,-9.987498E-1,-3.976411E-1,1E0,8.866191E-3],"categories":[],"categories_nodes":[],"categories_segments":[],"categories_sizes":[],"default_left":[true,true,true,false,false,false,false],"id":21,"left_children":[1,3,5,-1,-1,-1,-1],"loss_changes":[7.126744E3,1.3059375E2,1.2177014E3,0E0,0E0,0E0,0E0],"parents":[2147483647,0,0,1,1,2,2],"right_children":[2,4,6,-1,-1,-1,-1],"split_conditions":[1.1424637E0,7.6841974E-1,5.614382E4,-4.993749E-2,-1.9882055E-2,5E-2,4.4330955E-4],"split_indices":[0,0,4,0,0,0,0],"split_type":[0,0,0,0,0,0,0],"sum_hessian":[1.4655827E4,1.3592892E4,1.0629349E3,1.3219491E4,3.7340118E2,6.065065E2,4.564285E2],"tree_param":{"num_deleted":"0","num_feature":"7","num_nodes":"7","size_leaf_vector":"0"}},{"base_weights":[-7.6429164E-1,-9.7486067E-1,1E0,-9.928101E-1,-3.3136755E-1,1E0,1.2569666E-2],"categories":[],"categories_nodes":[],"categories_segments":[],"categories_sizes":[],"default_left":[true,true,true,false,false,false,false],"id":22,"left_children":[1,3,5,-1,-1,-1,-1],"loss_changes":[6.8483066E3,1.4972559E2,1.2017173E3,0E0,0E0,0E0,0E0],"parents":[2147483647,0,0,1,1,2,2],"right_children":[2,4,6,-1,-1,-1,-1],"split_conditions":[1.1425741E0,7.786956E-1,5.5268707E4,-4.9640503E-2,-1.6568378E-2,5E-2,6.284833E-4],"split_indices":[0,0,4,0,0,0,0],"split_type":[0,0,0,0,0,0,0],"sum_hessian":[1.4076022E4,1.2990343E4,1.0856796E3,1.2637299E4,3.5304388E2,6.284903E2,4.5718927E2],"tree_param":{"num_deleted":"0","num_feature":"7","num_nodes":"7","size_leaf_vector":"0"}},{"base_weights":[-7.4433637E-1,-9.604721E-1,1E0,-9.867194E-1,-2.2522995E-1,1.9763947E-2,1E0],"categories":[],"categories_nodes":[],"categories_segments":[],"categories_sizes":[],"default_left":[true,true,true,false,false,false,false],"id":23,"left_children":[1,3,5,-1,-1,-1,-1],"loss_changes":[6.901714E3,2.4095215E2,1.00609155E3,0E0,0E0,0E0,0E0],"parents":[2147483647,0,0,1,1,2,2],"right_children":[2,4,6,-1,-1,-1,-1],"split_conditions":[1.2643814E0,7.851079E-1,7.7909374E0,-4.933597E-2,-1.1261498E-2,9.881974E-4,5E-2],"split_indices":[0,0,6,0,0,0,0],"split_type":[0,0,0,0,0,0,0],"sum_hessian":[1.3516477E4,1.2496225E4,1.02025244E3,1.2065169E4,4.310552E2,3.5735098E2,6.629015E2],"tree_param":{"num_deleted":"0","num_feature":"7","num_nodes":"7","size_leaf_vector":"0"}},{"base_weights":[-7.3876727E-1,-9.677854E-1,1E0,-9.865781E-1,-4.5556265E-1,1.6107291E-2,1E0],"categories":[],"categories_nodes":[],"categories_segments":[],"categories_sizes":[],"default_left":[true,true,true,false,false,false,false],"id":24,"left_children":[1,3,5,-1,-1,-1,-1],"loss_changes":[6.5484546E3,1.1325293E2,1.2718301E3,0E0,0E0,0E0,0E0],"parents":[2147483647,0,0,1,1,2,2],"right_children":[2,4,6,-1,-1,-1,-1],"split_conditions":[1.1052452E0,6.6027516E-1,9.530535E0,-4.9328905E-2,-2.2778133E-2,8.053646E-4,5E-2],"split_indices":[0,0,6,0,0,0,0],"split_type":[0,0,0,0,0,0,0],"sum_hessian":[1.2961053E4,1.18108955E4,1.1501575E3,1.1392014E4,4.1888168E2,4.6609268E2,6.840648E2],"tree_param":{"num_deleted":"0","num_feature":"7","num_nodes":"7","size_leaf_vector":"0"}},{"base_weights":[-7.2875017E-1,-9.156281E-1,1E0,-9.843239E-1,4.2185962E-2,4.2185962E-2,1E0],"categories":[],"categories_nodes":[],"categories_segments":[],"categories_sizes":[],"default_left":[true,true,true,false,false,false,false],"id":25,"left_children":[1,3,5,-1,-1,-1,-1],"loss_changes":[6.2996523E3,8.155537E2,2.4173218E2,0E0,0E0,0E0,0E0],"parents":[2147483647,0,0,1,1,2,2],"right_children":[2,4,6,-1,-1,-1,-1],"split_conditions":[2.730115E0,2.775E2,6.529294E0,-4.9216196E-2,2.1092982E-3,2.1092982E-3,5E-2],"split_indices":[0,1,6,0,0,0,0],"split_type":[0,0,0,0,0,0,0],"sum_hessian":[1.2474564E4,1.1876172E4,5.983924E2,1.1113657E4,7.6251483E2,8.888758E1,5.0950482E2],"tree_param":{"num_deleted":"0","num_feature":"7","num_nodes":"7","size_leaf_vector":"0"}},{"base_weights":[-7.208904E-1,-9.5617235E-1,1E0,-9.8312736E-1,-2.741729E-1,1E0,2.1913826E-2],"categories":[],"categories_nodes":[],"categories_segments":[],"categories_sizes":[],"default_left":[true,true,true,false,false,false,false],"id":26,"left_children":[1,3,5,-1,-1,-1,-1],"loss_changes":[6.3260454E3,2.0081836E2,1.0045315E3,0E0,0E0,0E0,0E0],"parents":[2147483647,0,0,1,1,2,2],"right_children":[2,4,6,-1,-1,-1,-1],"split_conditions":[1.2661602E0,7.7968603E-1,5.5336555E4,-4.9156368E-2,-1.37086455E-2,5E-2,1.0956913E-3],"split_indices":[0,0,4,0,0,0,0],"split_type":[0,0,0,0,0,0,0],"sum_hessian":[1.1996693E4,1.0937605E4,1.059088E3,1.0521324E4,4.162814E2,6.622087E2,3.968793E2],"tree_param":{"num_deleted":"0","num_feature":"7","num_nodes":"7","size_leaf_vector":"0"}},{"base_weights":[-7.104987E-1,-9.537809E-1,1E0,-9.898221E-1,-3.974978E-1,2.3109555E-2,1E0],"categories":[],"categories_nodes":[],"categories_segments":[],"categories_sizes":[],"default_left":[true,true,true,false,false,false,false],"id":27,"left_children":[1,3,5,-1,-1,-1,-1],"loss_changes":[6.148174E3,2.0879785E2,1.00700195E3,0E0,0E0,0E0,0E0],"parents":[2147483647,0,0,1,1,2,2],"right_children":[2,4,6,-1,-1,-1,-1],"split_conditions":[1.2661699E0,2.765E2,7.84486E0,-4.9491104E-2,-1.9874891E-2,1.1554778E-3,5E-2],"split_indices":[0,1,6,0,0,0,0],"split_type":[0,0,0,0,0,0,0],"sum_hessian":[1.1510331E4,1.0432948E4,1.0773827E3,9.797402E3,6.3554626E2,3.570482E2,7.2033453E2],"tree_param":{"num_deleted":"0","num_feature":"7","num_nodes":"7","size_leaf_vector":"0"}},{"base_weights":[-6.9308484E-1,-9.038629E-1,1E0,-9.7726226E-1,4.8068553E-2,4.8068553E-2,1E0],"categories":[],"categories_nodes":[],"categories_segments":[],"categories_sizes":[],"default_left":[true,true,true,false,false,false,false],"id":28,"left_children":[1,3,5,-1,-1,-1,-1],"loss_changes":[6.038774E3,7.486846E2,2.3895117E2,0E0,0E0,0E0,0E0],"parents":[2147483647,0,0,1,1,2,2],"right_children":[2,4,6,-1,-1,-1,-1],"split_conditions":[2.730864E0,2.775E2,6.50375E0,-4.8863113E-2,2.4034276E-3,2.4034276E-3,5E-2],"split_indices":[0,1,6,0,0,0,0],"split_type":[0,0,0,0,0,0,0],"sum_hessian":[1.1052405E4,1.040671E4,6.4569507E2,9.682103E3,7.246076E2,8.939362E1,5.5630145E2],"tree_param":{"num_deleted":"0","num_feature":"7","num_nodes":"7","size_leaf_vector":"0"}},{"base_weights":[-6.8408096E-1,-9.513481E-1,1E0,-9.7127E-1,-3.1156072E-1,1E0,2.4325937E-2],"categories":[],"categories_nodes":[],"categories_segments":[],"categories_sizes":[],"default_left":[true,true,true,false,false,false,false],"id":29,"left_children":[1,3,5,-1,-1,-1,-1],"loss_changes":[5.7729087E3,1.1996289E2,1.2392056E3,0E0,0E0,0E0,0E0],"parents":[2147483647,0,0,1,1,2,2],"right_children":[2,4,6,-1,-1,-1,-1],"split_conditions":[1.1052452E0,7.527405E-1,5.466139E4,-4.8563503E-2,-1.5578036E-2,5E-2,1.2162969E-3],"split_indices":[0,0,4,0,0,0,0],"split_type":[0,0,0,0,0,0,0],"sum_hessian":[1.0631424E4,9.4346875E3,1.1967363E3,9.149276E3,2.8541095E2,7.296699E2,4.6706644E2],"tree_param":{"num_deleted":"0","num_feature":"7","num_nodes":"7","size_leaf_vector":"0"}},{"base_weights":[-6.680354E-1,-8.913774E-1,1E0,-9.714292E-1,5.4311305E-2,1E0,5.4311305E-2],"categories":[],"categories_nodes":[],"categories_segments":[],"categories_sizes":[],"default_left":[true,true,true,false,false,false,false],"id":30,"left_children":[1,3,5,-1,-1,-1,-1],"loss_changes":[5.786618E3,7.920083E2,2.236748E2,0E0,0E0,0E0,0E0],"parents":[2147483647,0,0,1,1,2,2],"right_children":[2,4,6,-1,-1,-1,-1],"split_conditions":[2.7924335E0,2.855E2,5.6250977E4,-4.8571464E-2,2.7155653E-3,5E-2,2.7155653E-3],"split_indices":[0,1,4,0,0,0,0],"split_type":[0,0,0,0,0,0,0],"sum_hessian":[1.0251971E4,9.591377E3,6.605938E2,8.905325E3,6.86052E2,5.6766077E2,9.293305E1],"tree_param":{"num_deleted":"0","num_feature":"7","num_nodes":"7","size_leaf_vector":"0"}},{"base_weights":[-6.5113056E-1,-9.429979E-1,1E0,-9.6514124E-1,-2.3010245E-1,2.8501064E-2,1E0],"categories":[],"categories_nodes":[],"categories_segments":[],"categories_sizes":[],"default_left":[true,true,true,false,false,false,false],"id":31,"left_children":[1,3,5,-1,-1,-1,-1],"loss_changes":[5.720938E3,1.3616064E2,1.1525767E3,0E0,0E0,0E0,0E0],"parents":[2147483647,0,0,1,1,2,2],"right_children":[2,4,6,-1,-1,-1,-1],"split_conditions":[1.1052452E0,7.7875173E-1,1.1133178E1,-4.8257064E-2,-1.1505122E-2,1.4250532E-3,5E-2],"split_indices":[0,0,6,0,0,0,0],"split_type":[0,0,0,0,0,0,0],"sum_hessian":[9.864034E3,8.638531E3,1.2255027E3,8.377948E3,2.6058298E2,4.6929437E2,7.562084E2],"tree_param":{"num_deleted":"0","num_feature":"7","num_nodes":"7","size_leaf_vector":"0"}},{"base_weights":[-6.4235204E-1,-9.395156E-1,1E0,-9.6235627E-1,-2.198239E-1,1E0,3.0242205E-2],"categories":[],"categories_nodes":[],"categories_segments":[],"categories_sizes":[],"default_left":[true,true,true,false,false,false,false],"id":32,"left_children":[1,3,5,-1,-1,-1,-1],"loss_changes":[5.397571E3,1.3520996E2,1.2029696E3,0E0,0E0,0E0,0E0],"parents":[2147483647,0,0,1,1,2,2],"right_children":[2,4,6,-1,-1,-1,-1],"split_conditions":[1.1052452E0,7.853499E-1,5.6126125E4,-4.8117813E-2,-1.0991195E-2,5E-2,1.5121102E-3],"split_indices":[0,0,4,0,0,0,0],"split_type":[0,0,0,0,0,0,0],"sum_hessian":[9.486629E3,8.237183E3,1.249446E3,7.983476E3,2.5370667E2,7.88477E2,4.60969E2],"tree_param":{"num_deleted":"0","num_feature":"7","num_nodes":"7","size_leaf_vector":"0"}},{"base_weights":[-6.281665E-1,-8.657554E-1,1E0,-9.61614E-1,6.712231E-2,1E0,6.712231E-2],"categories":[],"categories_nodes":[],"categories_segments":[],"categories_sizes":[],"default_left":[true,true,true,false,false,false,false],"id":33,"left_children":[1,3,5,-1,-1,-1,-1],"loss_changes":[5.1698813E3,8.7264746E2,2.4554541E2,0E0,0E0,0E0,0E0],"parents":[2147483647,0,0,1,1,2,2],"right_children":[2,4,6,-1,-1,-1,-1],"split_conditions":[2.7928824E0,2.775E2,5.8018836E4,-4.80807E-2,3.3561157E-3,5E-2,3.3561157E-3],"split_indices":[0,1,4,0,0,0,0],"split_type":[0,0,0,0,0,0,0],"sum_hessian":[9.147863E3,8.451593E3,6.9627026E2,7.774323E3,6.7726984E2,6.0351697E2,9.275327E1],"tree_param":{"num_deleted":"0","num_feature":"7","num_nodes":"7","size_leaf_vector":"0"}},{"base_weights":[-6.1237246E-1,-9.285332E-1,1E0,-9.815704E-1,-5.720499E-1,1E0,3.57334E-2],"categories":[],"categories_nodes":[],"categories_segments":[],"categories_sizes":[],"default_left":[true,true,true,false,false,false,false],"id":34,"left_children":[1,3,5,-1,-1,-1,-1],"loss_changes":[5.093286E3,1.4173047E2,1.2247909E3,0E0,0E0,0E0,0E0],"parents":[2147483647,0,0,1,1,2,2],"right_children":[2,4,6,-1,-1,-1,-1],"split_conditions":[1.067577E0,2.3695282E1,5.6126125E4,-4.907852E-2,-2.8602496E-2,5E-2,1.7866701E-3],"split_indices":[0,6,4,0,0,0,0],"split_type":[0,0,0,0,0,0,0],"sum_hessian":[8.806178E3,7.524919E3,1.2812584E3,6.548836E3,9.760831E2,8.1623016E2,4.6502823E2],"tree_param":{"num_deleted":"0","num_feature":"7","num_nodes":"7","size_leaf_vector":"0"}},{"base_weights":[-5.993249E-1,-8.5350853E-1,1E0,-9.596571E-1,7.3245734E-2,1E0,7.3245734E-2],"categories":[],"categories_nodes":[],"categories_segments":[],"categories_sizes":[],"default_left":[true,true,true,false,false,false,false],"id":35,"left_children":[1,3,5,-1,-1,-1,-1],"loss_changes":[4.978759E3,9.1472363E2,2.3237573E2,0E0,0E0,0E0,0E0],"parents":[2147483647,0,0,1,1,2,2],"right_children":[2,4,6,-1,-1,-1,-1],"split_conditions":[2.7923636E0,2.775E2,6.0922074E4,-4.7982853E-2,3.6622868E-3,5E-2,3.6622868E-3],"split_indices":[0,1,4,0,0,0,0],"split_type":[0,0,0,0,0,0,0],"sum_hessian":[8.48282E3,7.7649907E3,7.178295E2,7.1082095E3,6.5678107E2,6.3033374E2,8.749577E1],"tree_param":{"num_deleted":"0","num_feature":"7","num_nodes":"7","size_leaf_vector":"0"}},{"base_weights":[-5.897933E-1,-9.2102784E-1,1E0,-9.4822174E-1,-7.541816E-2,3.948608E-2,1E0],"categories":[],"categories_nodes":[],"categories_segments":[],"categories_sizes":[],"default_left":[true,true,true,false,false,false,false],"id":36,"left_children":[1,3,5,-1,-1,-1,-1],"loss_changes":[4.7685947E3,1.5841211E2,1.1796023E3,0E0,0E0,0E0,0E0],"parents":[2147483647,0,0,1,1,2,2],"right_children":[2,4,6,-1,-1,-1,-1],"split_conditions":[1.0675348E0,7.6545787E-1,1.0201294E1,-4.7411088E-2,-3.770908E-3,1.974304E-3,5E-2],"split_indices":[0,0,6,0,0,0,0],"split_type":[0,0,0,0,0,0,0],"sum_hessian":[8.1749175E3,6.8909673E3,1.2839501E3,6.6761484E3,2.148188E2,4.5256308E2,8.3138696E2],"tree_param":{"num_deleted":"0","num_feature":"7","num_nodes":"7","size_leaf_vector":"0"}},{"base_weights":[-5.760192E-1,-8.4440005E-1,1E0,-9.494513E-1,7.7799976E-2,1E0,7.7799976E-2],"categories":[],"categories_nodes":[],"categories_segments":[],"categories_sizes":[],"default_left":[true,true,true,false,false,false,false],"id":37,"left_children":[1,3,5,-1,-1,-1,-1],"loss_changes":[4.6925615E3,7.952007E2,2.4303809E2,0E0,0E0,0E0,0E0],"parents":[2147483647,0,0,1,1,2,2],"right_children":[2,4,6,-1,-1,-1,-1],"split_conditions":[2.730598E0,2.775E2,5.628022E4,-4.7472566E-2,3.889999E-3,5E-2,3.889999E-3],"split_indices":[0,1,4,0,0,0,0],"split_type":[0,0,0,0,0,0,0],"sum_hessian":[7.896494E3,7.1450884E3,7.514056E2,6.5118154E3,6.332729E2,6.5055774E2,1.0084783E2],"tree_param":{"num_deleted":"0","num_feature":"7","num_nodes":"7","size_leaf_vector":"0"}},{"base_weights":[-5.665857E-1,-9.0770847E-1,1E0,-9.694406E-1,-4.8143035E-1,1E0,4.6145767E-2],"categories":[],"categories_nodes":[],"categories_segments":[],"categories_sizes":[],"default_left":[true,true,true,false,false,false,false],"id":38,"left_children":[1,3,5,-1,-1,-1,-1],"loss_changes":[4.392336E3,1.663584E2,1.11234E3,0E0,0E0,0E0,0E0],"parents":[2147483647,0,0,1,1,2,2],"right_children":[2,4,6,-1,-1,-1,-1],"split_conditions":[1.1051837E0,2.419424E1,5.529268E4,-4.847203E-2,-2.4071518E-2,5E-2,2.3072883E-3],"split_indices":[0,6,4,0,0,0,0],"split_type":[0,0,0,0,0,0,0],"sum_hessian":[7.6098335E3,6.338529E3,1.2713049E3,5.535607E3,8.029216E2,8.345646E2,4.3674033E2],"tree_param":{"num_deleted":"0","num_feature":"7","num_nodes":"7","size_leaf_vector":"0"}},{"base_weights":[-5.433076E-1,-8.1762886E-1,1E0,-9.421642E-1,9.118557E-2,9.118557E-2,1E0],"categories":[],"categories_nodes":[],"categories_segments":[],"categories_sizes":[],"default_left":[true,true,true,false,false,false,false],"id":39,"left_children":[1,3,5,-1,-1,-1,-1],"loss_changes":[4.293995E3,9.2707275E2,2.404845E2,0E0,0E0,0E0,0E0],"parents":[2147483647,0,0,1,1,2,2],"right_children":[2,4,6,-1,-1,-1,-1],"split_conditions":[2.8002539E0,2.775E2,6.178715E0,-4.710821E-2,4.5592785E-3,4.5592785E-3,5E-2],"split_indices":[0,1,6,0,0,0,0],"split_type":[0,0,0,0,0,0,0],"sum_hessian":[7.3881284E3,6.626089E3,7.620396E2,5.9932056E3,6.328833E2,8.735201E1,6.746876E2],"tree_param":{"num_deleted":"0","num_feature":"7","num_nodes":"7","size_leaf_vector":"0"}},{"base_weights":[-5.3578866E-1,-9.1790277E-1,1E0,-9.8006624E-1,-6.412463E-1,4.1048616E-2,1E0],"categories":[],"categories_nodes":[],"categories_segments":[],"categories_sizes":[],"default_left":[true,true,true,false,false,false,false],"id":40,"left_children":[1,3,5,-1,-1,-1,-1],"loss_changes":[4.1880903E3,9.737305E1,1.3120099E3,0E0,0E0,0E0,0E0],"parents":[2147483647,0,0,1,1,2,2],"right_children":[2,4,6,-1,-1,-1,-1],"split_conditions":[9.184958E-1,1.8655865E1,1.0757519E1,-4.9003314E-2,-3.206232E-2,2.0524308E-3,5E-2],"split_indices":[0,6,6,0,0,0,0],"split_type":[0,0,0,0,0,0,0],"sum_hessian":[7.109753E3,5.697435E3,1.4123175E3,4.650048E3,1.0473876E3,5.1633905E2,8.9597845E2],"tree_param":{"num_deleted":"0","num_feature":"7","num_nodes":"7","size_leaf_vector":"0"}},{"base_weights":[-5.280694E-1,-8.114558E-1,1E0,-9.381224E-1,9.427211E-2,1E0,9.427211E-2],"categories":[],"categories_nodes":[],"categories_segments":[],"categories_sizes":[],"default_left":[true,true,true,false,false,false,false],"id":41,"left_children":[1,3,5,-1,-1,-1,-1],"loss_changes":[3.9655547E3,8.6732666E2,2.5343176E2,0E0,0E0,0E0,0E0],"parents":[2147483647,0,0,1,1,2,2],"right_children":[2,4,6,-1,-1,-1,-1],"split_conditions":[2.7305708E0,2.855E2,5.7470152E4,-4.690612E-2,4.7136056E-3,5E-2,4.7136056E-3],"split_indices":[0,1,4,0,0,0,0],"split_type":[0,0,0,0,0,0,0],"sum_hessian":[6.880541E3,6.104655E3,7.7588605E2,5.5120938E3,5.925611E2,6.733257E2,1.02560356E2],"tree_param":{"num_deleted":"0","num_feature":"7","num_nodes":"7","size_leaf_vector":"0"}},{"base_weights":[-5.0280505E-1,-9.0733445E-1,9.59013E-1,-9.7118795E-1,-5.807808E-1,1E0,2.583927E-2],"categories":[],"categories_nodes":[],"categories_segments":[],"categories_sizes":[],"default_left":[true,true,true,false,false,false,false],"id":42,"left_children":[1,3,5,-1,-1,-1,-1],"loss_changes":[3.9460845E3,1.0840674E2,1.3532534E3,0E0,0E0,0E0,0E0],"parents":[2147483647,0,0,1,1,2,2],"right_children":[2,4,6,-1,-1,-1,-1],"split_conditions":[9.185054E-1,2.0781252E1,3.575557E4,-4.8559397E-2,-2.903904E-2,5E-2,1.2919635E-3],"split_indices":[0,6,4,0,0,0,0],"split_type":[0,0,0,0,0,0,0],"sum_hessian":[6.6705576E3,5.225016E3,1.4455411E3,4.368781E3,8.562354E2,8.4273303E2,6.0280804E2],"tree_param":{"num_deleted":"0","num_feature":"7","num_nodes":"7","size_leaf_vector":"0"}},{"base_weights":[-4.8751765E-1,-9.214084E-1,9.0963227E-1,-9.859066E-1,-6.817985E-1,1E0,-5.8880746E-3],"categories":[],"categories_nodes":[],"categories_segments":[],"categories_sizes":[],"default_left":[true,true,true,false,false,false,false],"id":43,"left_children":[1,3,5,-1,-1,-1,-1],"loss_changes":[3.9062778E3,7.5305664E1,1.5001903E3,0E0,0E0,0E0,0E0],"parents":[2147483647,0,0,1,1,2,2],"right_children":[2,4,6,-1,-1,-1,-1],"split_conditions":[7.796951E-1,1.648099E1,3.6717152E4,-4.9295332E-2,-3.4089927E-2,5E-2,-2.9440373E-4],"split_indices":[0,6,4,0,0,0,0],"split_type":[0,0,0,0,0,0,0],"sum_hessian":[6.441382E3,4.915266E3,1.526116E3,3.8703347E3,1.0449314E3,8.765183E2,6.4959766E2],"tree_param":{"num_deleted":"0","num_feature":"7","num_nodes":"7","size_leaf_vector":"0"}},{"base_weights":[-4.731298E-1,-9.110823E-1,8.735032E-1,-9.879924E-1,-6.9455504E-1,1E0,-1.878956E-2],"categories":[],"categories_nodes":[],"categories_segments":[],"categories_sizes":[],"default_left":[true,true,true,false,false,false,false],"id":44,"left_children":[1,3,5,-1,-1,-1,-1],"loss_changes":[3.6828164E3,7.777661E1,1.5125876E3,0E0,0E0,0E0,0E0],"parents":[2147483647,0,0,1,1,2,2],"right_children":[2,4,6,-1,-1,-1,-1],"split_conditions":[7.866322E-1,1.265785E1,3.326631E4,-4.939962E-2,-3.4727752E-2,5E-2,-9.39478E-4],"split_indices":[0,6,4,0,0,0,0],"split_type":[0,0,0,0,0,0,0],"sum_hessian":[6.242239E3,4.710584E3,1.5316545E3,3.4733088E3,1.2372753E3,8.649141E2,6.6674036E2],"tree_param":{"num_deleted":"0","num_feature":"7","num_nodes":"7","size_leaf_vector":"0"}},{"base_weights":[-4.702929E-1,-9.074627E-1,8.0882275E-1,-9.8197395E-1,-6.866296E-1,1E0,-4.9319983E-2],"categories":[],"categories_nodes":[],"categories_segments":[],"categories_sizes":[],"default_left":[true,true,true,false,false,false,false],"id":45,"left_children":[1,3,5,-1,-1,-1,-1],"loss_changes":[3.3761519E3,7.3357666E1,1.5313269E3,0E0,0E0,0E0,0E0],"parents":[2147483647,0,0,1,1,2,2],"right_children":[2,4,6,-1,-1,-1,-1],"split_conditions":[7.6842016E-1,1.3560147E1,3.5007664E4,-4.9098697E-2,-3.4331482E-2,5E-2,-2.4659992E-3],"split_indices":[0,6,4,0,0,0,0],"split_type":[0,0,0,0,0,0,0],"sum_hessian":[6.035255E3,4.49818E3,1.5370751E3,3.360775E3,1.1374052E3,8.747988E2,6.622762E2],"tree_param":{"num_deleted":"0","num_feature":"7","num_nodes":"7","size_leaf_vector":"0"}},{"base_weights":[-4.5769647E-1,-7.543849E-1,1E0,-9.3880033E-1,1.2280756E-1,1E0,1.2280756E-1],"categories":[],"categories_nodes":[],"categories_segments":[],"categories_sizes":[],"default_left":[true,true,true,false,false,false,false],"id":46,"left_children":[1,3,5,-1,-1,-1,-1],"loss_changes":[3.3027705E3,9.205408E2,1.9110559E2,0E0,0E0,0E0,0E0],"parents":[2147483647,0,0,1,1,2,2],"right_children":[2,4,6,-1,-1,-1,-1],"split_conditions":[3.0732439E0,2.4133278E1,5.6233594E4,-4.6940017E-2,6.1403783E-3,5E-2,6.1403783E-3],"split_indices":[0,6,4,0,0,0,0],"split_type":[0,0,0,0,0,0,0],"sum_hessian":[5.847973E3,5.1103755E3,7.375976E2,4.305601E3,8.047742E2,6.5935065E2,7.824699E1],"tree_param":{"num_deleted":"0","num_feature":"7","num_nodes":"7","size_leaf_vector":"0"}},{"base_weights":[-4.4625768E-1,-8.9903647E-1,7.8040504E-1,-9.8181534E-1,-6.7944056E-1,-5.931571E-2,1E0],"categories":[],"categories_nodes":[],"categories_segments":[],"categories_sizes":[],"default_left":[true,true,true,false,false,false,false],"id":47,"left_children":[1,3,5,-1,-1,-1,-1],"loss_changes":[3.1572896E3,7.480029E1,1.4563313E3,0E0,0E0,0E0,0E0],"parents":[2147483647,0,0,1,1,2,2],"right_children":[2,4,6,-1,-1,-1,-1],"split_conditions":[7.8666604E-1,1.2503661E1,1.0985295E1,-4.909077E-2,-3.397203E-2,-2.9657856E-3,5E-2],"split_indices":[0,6,6,0,0,0,0],"split_type":[0,0,0,0,0,0,0],"sum_hessian":[5.6823794E3,4.1506006E3,1.5317789E3,3.0118005E3,1.1387999E3,5.565807E2,9.751982E2],"tree_param":{"num_deleted":"0","num_feature":"7","num_nodes":"7","size_leaf_vector":"0"}},{"base_weights":[-4.3056443E-1,-8.9270914E-1,7.575118E-1,-9.8312455E-1,-6.7820853E-1,-6.759867E-2,1E0],"categories":[],"categories_nodes":[],"categories_segments":[],"categories_sizes":[],"default_left":[true,true,true,false,false,false,false],"id":48,"left_children":[1,3,5,-1,-1,-1,-1],"loss_changes":[3.024895E3,7.624902E1,1.4319534E3,0E0,0E0,0E0,0E0],"parents":[2147483647,0,0,1,1,2,2],"right_children":[2,4,6,-1,-1,-1,-1],"split_conditions":[7.851079E-1,1.1345018E1,1.2323096E1,-4.915623E-2,-3.3910427E-2,-3.3799335E-3,5E-2],"split_indices":[0,6,6,0,0,0,0],"split_type":[0,0,0,0,0,0,0],"sum_hessian":[5.506962E3,3.964915E3,1.5420468E3,2.7866953E3,1.1782196E3,5.880519E2,9.539949E2],"tree_param":{"num_deleted":"0","num_feature":"7","num_nodes":"7","size_leaf_vector":"0"}},{"base_weights":[-4.1528997E-1,7.531196E-1,-8.845687E-1,-6.572455E-2,1E0,-9.1828275E-1,-6.572455E-2],"categories":[],"categories_nodes":[],"categories_segments":[],"categories_sizes":[],"default_left":[true,true,true,false,false,false,false],"id":49,"left_children":[1,3,5,-1,-1,-1,-1],"loss_changes":[2.9399329E3,1.4222909E3,1.2316089E2,0E0,0E0,0E0,0E0],"parents":[2147483647,0,0,1,1,2,2],"right_children":[2,4,6,-1,-1,-1,-1],"split_conditions":[3.344715E4,3.8764158E-1,3.1821153E0,-3.2862276E-3,5E-2,-4.591414E-2,-3.2862276E-3],"split_indices":[4,0,0,0,0,0,0],"split_type":[0,0,0,0,0,0,0],"sum_hessian":[5.359596E3,1.5356161E3,3.82398E3,6.05146E2,9.304701E2,3.6968958E3,1.2708427E2],"tree_param":{"num_deleted":"0","num_feature":"7","num_nodes":"7","size_leaf_vector":"0"}},{"base_weights":[-4.126727E-1,-7.175808E-1,1E0,-8.8784415E-1,1.412096E-1,1.412096E-1,1E0],"categories":[],"categories_nodes":[],"categories_segments":[],"categories_sizes":[],"default_left":[true,true,true,false,false,false,false],"id":50,"left_children":[1,3,5,-1,-1,-1,-1],"loss_changes":[2.792963E3,8.732329E2,1.917533E2,0E0,0E0,0E0,0E0],"parents":[2147483647,0,0,1,1,2,2],"right_children":[2,4,6,-1,-1,-1,-1],"split_conditions":[3.1472044E0,2.765E2,7.1752224E0,-4.439221E-2,7.0604803E-3,7.0604803E-3,5E-2],"split_indices":[0,1,6,0,0,0,0],"split_type":[0,0,0,0,0,0,0],"sum_hessian":[5.2074224E3,4.4694224E3,7.380003E2,3.9371248E3,5.322975E2,7.972482E1,6.5827545E2],"tree_param":{"num_deleted":"0","num_feature":"7","num_nodes":"7","size_leaf_vector":"0"}},{"base_weights":[-3.9124742E-1,7.387343E-1,-8.77648E-1,-6.9456846E-2,1E0,-9.244191E-1,-2.2932336E-1],"categories":[],"categories_nodes":[],"categories_segments":[],"categories_sizes":[],"default_left":[true,true,true,false,false,false,false],"id":51,"left_children":[1,3,5,-1,-1,-1,-1],"loss_changes":[2.762223E3,1.3295673E3,1.0631152E2,0E0,0E0,0E0,0E0],"parents":[2147483647,0,0,1,1,2,2],"right_children":[2,4,6,-1,-1,-1,-1],"split_conditions":[3.4146223E4,4.1850275E-1,1.9685185E0,-3.4728423E-3,5E-2,-4.6220955E-2,-1.1466168E-2],"split_indices":[4,0,0,0,0,0,0],"split_type":[0,0,0,0,0,0,0],"sum_hessian":[5.023482E3,1.5115063E3,3.5119756E3,5.8749054E2,9.2401587E2,3.2752668E3,2.3670871E2],"tree_param":{"num_deleted":"0","num_feature":"7","num_nodes":"7","size_leaf_vector":"0"}},{"base_weights":[-3.9084965E-1,6.7571145E-1,-8.783782E-1,-1.0133338E-1,1E0,-9.114061E-1,-1.0133338E-1],"categories":[],"categories_nodes":[],"categories_segments":[],"categories_sizes":[],"default_left":[true,true,true,false,false,false,false],"id":52,"left_children":[1,3,5,-1,-1,-1,-1],"loss_changes":[2.5469587E3,1.2982998E3,1.17272705E2,0E0,0E0,0E0,0E0],"parents":[2147483647,0,0,1,1,2,2],"right_children":[2,4,6,-1,-1,-1,-1],"split_conditions":[3.5065703E4,4.1224974E-1,3.6214614E0,-5.066669E-3,5E-2,-4.5570306E-2,-5.066669E-3],"split_indices":[4,0,0,0,0,0,0],"split_type":[0,0,0,0,0,0,0],"sum_hessian":[4.896054E3,1.5358047E3,3.3602495E3,5.95935E2,9.398697E2,3.270476E3,8.9773506E1],"tree_param":{"num_deleted":"0","num_feature":"7","num_nodes":"7","size_leaf_vector":"0"}},{"base_weights":[-3.7550145E-1,-8.717424E-1,6.617093E-1,-9.73742E-1,-6.2376964E-1,-1.0501656E-1,1E0],"categories":[],"categories_nodes":[],"categories_segments":[],"categories_sizes":[],"default_left":[true,true,true,false,false,false,false],"id":53,"left_children":[1,3,5,-1,-1,-1,-1],"loss_changes":[2.4570146E3,8.105151E1,1.3119172E3,0E0,0E0,0E0,0E0],"parents":[2147483647,0,0,1,1,2,2],"right_children":[2,4,6,-1,-1,-1,-1],"split_conditions":[6.6713434E-1,1.2213827E1,1.2993456E1,-4.86871E-2,-3.1188482E-2,-5.250828E-3,5E-2],"split_indices":[0,6,6,0,0,0,0],"split_type":[0,0,0,0,0,0,0],"sum_hessian":[4.771502E3,3.227502E3,1.5439999E3,2.2847715E3,9.427305E2,5.913991E2,9.5260077E2],"tree_param":{"num_deleted":"0","num_feature":"7","num_nodes":"7","size_leaf_vector":"0"}},{"base_weights":[-3.6437833E-1,6.6088253E-1,-8.5575885E-1,-9.743816E-2,1E0,-9.137617E-1,-1.6087489E-1],"categories":[],"categories_nodes":[],"categories_segments":[],"categories_sizes":[],"default_left":[true,true,true,false,false,false,false],"id":54,"left_children":[1,3,5,-1,-1,-1,-1],"loss_changes":[2.3400332E3,1.1617148E3,1.26395996E2,0E0,0E0,0E0,0E0],"parents":[2147483647,0,0,1,1,2,2],"right_children":[2,4,6,-1,-1,-1,-1],"split_conditions":[3.339315E4,3.782506E-1,1.9685185E0,-4.871908E-3,5E-2,-4.5688085E-2,-8.043745E-3],"split_indices":[4,0,0,0,0,0,0],"split_type":[0,0,0,0,0,0,0],"sum_hessian":[4.642706E3,1.5040905E3,3.1386157E3,5.4961743E2,9.5447296E2,2.8965242E3,2.4209157E2],"tree_param":{"num_deleted":"0","num_feature":"7","num_nodes":"7","size_leaf_vector":"0"}},{"base_weights":[-3.6199573E-1,-8.626211E-1,6.154647E-1,-9.76238E-1,-5.793458E-1,-1.2357822E-1,1E0],"categories":[],"categories_nodes":[],"categories_segments":[],"categories_sizes":[],"default_left":[true,true,true,false,false,false,false],"id":55,"left_children":[1,3,5,-1,-1,-1,-1],"loss_changes":[2.2010215E3,9.515796E1,1.2629216E3,0E0,0E0,0E0,0E0],"parents":[2147483647,0,0,1,1,2,2],"right_children":[2,4,6,-1,-1,-1,-1],"split_conditions":[6.400095E-1,1.289152E1,1.2196098E1,-4.88119E-2,-2.8967291E-2,-6.1789113E-3,5E-2],"split_indices":[0,6,6,0,0,0,0],"split_type":[0,0,0,0,0,0,0],"sum_hessian":[4.4958403E3,2.9731838E3,1.5226565E3,2.1203154E3,8.528684E2,5.4917303E2,9.734835E2],"tree_param":{"num_deleted":"0","num_feature":"7","num_nodes":"7","size_leaf_vector":"0"}},{"base_weights":[-3.3639616E-1,6.965815E-1,-8.388358E-1,-7.112715E-2,1E0,-8.873937E-1,-7.112715E-2],"categories":[],"categories_nodes":[],"categories_segments":[],"categories_sizes":[],"default_left":[true,true,true,false,false,false,false],"id":56,"left_children":[1,3,5,-1,-1,-1,-1],"loss_changes":[2.2882185E3,1.026536E3,1.447793E2,0E0,0E0,0E0,0E0],"parents":[2147483647,0,0,1,1,2,2],"right_children":[2,4,6,-1,-1,-1,-1],"split_conditions":[3.0326066E4,2.6790643E-1,3.3174891E0,-3.5563575E-3,5E-2,-4.4369686E-2,-3.5563575E-3],"split_indices":[4,0,0,0,0,0,0],"split_type":[0,0,0,0,0,0,0],"sum_hessian":[4.4066973E3,1.4418916E3,2.9648057E3,4.783016E2,9.6358997E2,2.8397412E3,1.2506449E2],"tree_param":{"num_deleted":"0","num_feature":"7","num_nodes":"7","size_leaf_vector":"0"}},{"base_weights":[-3.2902175E-1,-8.7604177E-1,5.5136234E-1,-9.7644746E-1,-6.206715E-1,-1.6233972E-1,1E0],"categories":[],"categories_nodes":[],"categories_segments":[],"categories_sizes":[],"default_left":[true,true,true,false,false,false,false],"id":57,"left_children":[1,3,5,-1,-1,-1,-1],"loss_changes":[2.073864E3,6.748999E1,1.344242E3,0E0,0E0,0E0,0E0],"parents":[2147483647,0,0,1,1,2,2],"right_children":[2,4,6,-1,-1,-1,-1],"split_conditions":[4.1503674E-1,1.34960575E1,1.2788921E1,-4.8822373E-2,-3.1033576E-2,-8.116986E-3,5E-2],"split_indices":[0,6,6,0,0,0,0],"split_type":[0,0,0,0,0,0,0],"sum_hessian":[4.304303E3,2.6547805E3,1.649523E3,1.9035317E3,7.512488E2,6.23426E2,1.0260969E3],"tree_param":{"num_deleted":"0","num_feature":"7","num_nodes":"7","size_leaf_vector":"0"}},{"base_weights":[-3.2860088E-1,5.825622E-1,-8.3822566E-1,-1.2783173E-1,1E0,-8.799666E-1,-1.2783173E-1],"categories":[],"categories_nodes":[],"categories_segments":[],"categories_sizes":[],"default_left":[true,true,true,false,false,false,false],"id":58,"left_children":[1,3,5,-1,-1,-1,-1],"loss_changes":[1.9440725E3,1.0217788E3,1.1060376E2,0E0,0E0,0E0,0E0],"parents":[2147483647,0,0,1,1,2,2],"right_children":[2,4,6,-1,-1,-1,-1],"split_conditions":[3.4972742E4,2.37212E-1,3.642837E0,-6.3915863E-3,5E-2,-4.399833E-2,-6.3915863E-3],"split_indices":[4,0,0,0,0,0,0],"split_type":[0,0,0,0,0,0,0],"sum_hessian":[4.18459E3,1.5009263E3,2.6836636E3,4.9462946E2,1.00629675E3,2.5894956E3,9.41679E1],"tree_param":{"num_deleted":"0","num_feature":"7","num_nodes":"7","size_leaf_vector":"0"}},{"base_weights":[-3.2517138E-1,5.5520046E-1,-8.3546287E-1,-1.401312E-1,1E0,-8.7797993E-1,-1.401312E-1],"categories":[],"categories_nodes":[],"categories_segments":[],"categories_sizes":[],"default_left":[true,true,true,false,false,false,false],"id":59,"left_children":[1,3,5,-1,-1,-1,-1],"loss_changes":[1.8270874E3,9.3476575E2,9.867627E1,0E0,0E0,0E0,0E0],"parents":[2147483647,0,0,1,1,2,2],"right_children":[2,4,6,-1,-1,-1,-1],"split_conditions":[3.422204E4,3.9112324E-1,3.310154E0,-7.0065605E-3,5E-2,-4.3898996E-2,-7.0065605E-3],"split_indices":[4,0,0,0,0,0,0],"split_type":[0,0,0,0,0,0,0],"sum_hessian":[4.064974E3,1.4915737E3,2.5734004E3,5.123262E2,9.792475E2,2.4665454E3,1.0685503E2],"tree_param":{"num_deleted":"0","num_feature":"7","num_nodes":"7","size_leaf_vector":"0"}},{"base_weights":[-3.1067035E-1,-8.3500475E-1,5.460773E-1,-9.700544E-1,-5.7467383E-1,-1.4446372E-1,1E0],"categories":[],"categories_nodes":[],"categories_segments":[],"categories_sizes":[],"default_left":[true,true,true,false,false,false,false],"id":60,"left_children":[1,3,5,-1,-1,-1,-1],"loss_changes":[1.7851472E3,8.610364E1,1.0544343E3,0E0,0E0,0E0,0E0],"parents":[2147483647,0,0,1,1,2,2],"right_children":[2,4,6,-1,-1,-1,-1],"split_conditions":[6.590564E-1,1.0319565E1,1.4261466E1,-4.850272E-2,-2.8733691E-2,-7.223186E-3,5E-2],"split_indices":[0,6,6,0,0,0,0],"split_type":[0,0,0,0,0,0,0],"sum_hessian":[3.9718474E3,2.4639321E3,1.507915E3,1.6205349E3,8.433973E2,5.811147E2,9.268004E2],"tree_param":{"num_deleted":"0","num_feature":"7","num_nodes":"7","size_leaf_vector":"0"}},{"base_weights":[-3.1303242E-1,-8.4525746E-1,5.0031763E-1,-9.410343E-1,-1.7246991E-1,-1.7246991E-1,1E0],"categories":[],"categories_nodes":[],"categories_segments":[],"categories_sizes":[],"default_left":[true,true,true,false,false,false,false],"id":61,"left_children":[1,3,5,-1,-1,-1,-1],"loss_changes":[1.677835E3,2.2621594E2,9.74901E2,0E0,0E0,0E0,0E0],"parents":[2147483647,0,0,1,1,2,2],"right_children":[2,4,6,-1,-1,-1,-1],"split_conditions":[1.5722502E1,3.3102002E0,4.557966E-1,-4.7051717E-2,-8.623496E-3,-8.623496E-3,5E-2],"split_indices":[6,0,0,0,0,0,0],"split_type":[0,0,0,0,0,0,0],"sum_hessian":[3.8739575E3,2.3416394E3,1.532318E3,2.1771687E3,1.6447073E2,6.081731E2,9.2414496E2],"tree_param":{"num_deleted":"0","num_feature":"7","num_nodes":"7","size_leaf_vector":"0"}},{"base_weights":[-2.9968286E-1,-9.1631144E-1,3.8498262E-1,-9.633476E-1,-2.656644E-1,-2.656644E-1,1E0],"categories":[],"categories_nodes":[],"categories_segments":[],"categories_sizes":[],"default_left":[true,true,true,false,false,false,false],"id":62,"left_children":[1,3,5,-1,-1,-1,-1],"loss_changes":[1.5943496E3,7.573132E1,1.0968278E3,0E0,0E0,0E0,0E0],"parents":[2147483647,0,0,1,1,2,2],"right_children":[2,4,6,-1,-1,-1,-1],"split_conditions":[1.128248E1,3.3095875E0,3.620898E-1,-4.816738E-2,-1.328322E-2,-1.328322E-2,5E-2],"split_indices":[6,0,0,0,0,0,0],"split_type":[0,0,0,0,0,0,0],"sum_hessian":[3.774595E3,1.9857949E3,1.7887999E3,1.8826617E3,1.03133125E2,7.263487E2,1.0624513E3],"tree_param":{"num_deleted":"0","num_feature":"7","num_nodes":"7","size_leaf_vector":"0"}},{"base_weights":[-2.9450694E-1,4.1340622E-1,-8.686468E-1,-2.2762029E-1,9.169624E-1,-9.576836E-1,-7.31881E-1],"categories":[],"categories_nodes":[],"categories_segments":[],"categories_sizes":[],"default_left":[true,true,true,false,false,false,false],"id":63,"left_children":[1,3,5,-1,-1,-1,-1],"loss_changes":[1.5090745E3,8.131727E2,2.426233E1,0E0,0E0,0E0,0E0],"parents":[2147483647,0,0,1,1,2,2],"right_children":[2,4,6,-1,-1,-1,-1],"split_conditions":[5.424372E4,1.542668E-1,3.3673603E-2,-1.1381014E-2,4.584812E-2,-4.788418E-2,-3.6594052E-2],"split_indices":[4,0,0,0,0,0,0],"split_type":[0,0,0,0,0,0,0],"sum_hessian":[3.7110142E3,1.6620233E3,2.048991E3,5.2065204E2,1.1413712E3,1.2374124E3,8.1157855E2],"tree_param":{"num_deleted":"0","num_feature":"7","num_nodes":"7","size_leaf_vector":"0"}},{"base_weights":[-2.9848912E-1,-8.948189E-1,3.6728996E-1,-9.472754E-1,-2.6376447E-1,-2.6376447E-1,9.8819816E-1],"categories":[],"categories_nodes":[],"categories_segments":[],"categories_sizes":[],"default_left":[true,true,true,false,false,false,false],"id":64,"left_children":[1,3,5,-1,-1,-1,-1],"loss_changes":[1.431516E3,7.845447E1,9.2189355E2,0E0,0E0,0E0,0E0],"parents":[2147483647,0,0,1,1,2,2],"right_children":[2,4,6,-1,-1,-1,-1],"split_conditions":[1.2346938E1,3.3095875E0,4.6298105E-1,-4.736377E-2,-1.3188223E-2,-1.3188223E-2,4.9409907E-2],"split_indices":[6,0,0,0,0,0,0],"split_type":[0,0,0,0,0,0,0],"sum_hessian":[3.603789E3,1.9008649E3,1.7029242E3,1.7882247E3,1.1264008E2,6.8280273E2,1.0201214E3],"tree_param":{"num_deleted":"0","num_feature":"7","num_nodes":"7","size_leaf_vector":"0"}},{"base_weights":[-2.8861177E-1,-9.22563E-1,3.0045947E-1,-9.524389E-1,-3.110518E-1,-3.110518E-1,8.941034E-1],"categories":[],"categories_nodes":[],"categories_segments":[],"categories_sizes":[],"default_left":[true,true,true,false,false,false,false],"id":65,"left_children":[1,3,5,-1,-1,-1,-1],"loss_changes":[1.31969E3,3.6745117E1,9.022403E2,0E0,0E0,0E0,0E0],"parents":[2147483647,0,0,1,1,2,2],"right_children":[2,4,6,-1,-1,-1,-1],"split_conditions":[1.0227289E1,3.8742201E0,4.649506E-1,-4.7621947E-2,-1.555259E-2,-1.555259E-2,4.470517E-2],"split_indices":[6,0,0,0,0,0,0],"split_type":[0,0,0,0,0,0,0],"sum_hessian":[3.5321086E3,1.7009745E3,1.831134E3,1.6356681E3,6.530645E1,7.39145E2,1.091989E3],"tree_param":{"num_deleted":"0","num_feature":"7","num_nodes":"7","size_leaf_vector":"0"}},{"base_weights":[-2.7089933E-1,-8.8445294E-1,3.6484638E-1,-9.199935E-1,-2.598033E-1,-2.598033E-1,7.585641E-1],"categories":[],"categories_nodes":[],"categories_segments":[],"categories_sizes":[],"default_left":[true,true,true,false,false,false,false],"id":66,"left_children":[1,3,5,-1,-1,-1,-1],"loss_changes":[1.3464812E3,5.29209E1,5.0764777E2,0E0,0E0,0E0,0E0],"parents":[2147483647,0,0,1,1,2,2],"right_children":[2,4,6,-1,-1,-1,-1],"split_conditions":[2.85E1,3.8315496E0,7.684019E-1,-4.5999676E-2,-1.2990165E-2,-1.2990165E-2,3.7928205E-2],"split_indices":[1,0,0,0,0,0,0],"split_type":[0,0,0,0,0,0,0],"sum_hessian":[3.4501216E3,1.7555051E3,1.6946165E3,1.6930508E3,6.2454395E1,5.6809314E2,1.1265233E3],"tree_param":{"num_deleted":"0","num_feature":"7","num_nodes":"7","size_leaf_vector":"0"}},{"base_weights":[-2.7860162E-1,3.659692E-1,-8.5925627E-1,-2.4664353E-1,7.99895E-1,-9.4885004E-1,-7.327558E-1],"categories":[],"categories_nodes":[],"categories_segments":[],"categories_sizes":[],"default_left":[true,true,true,false,false,false,false],"id":67,"left_children":[1,3,5,-1,-1,-1,-1],"loss_changes":[1.2635095E3,6.441069E2,1.9431763E1,0E0,0E0,0E0,0E0],"parents":[2147483647,0,0,1,1,2,2],"right_children":[2,4,6,-1,-1,-1,-1],"split_conditions":[5.5869133E4,1.23532884E-1,3.1322077E-2,-1.2332177E-2,3.999475E-2,-4.7442503E-2,-3.663779E-2],"split_indices":[4,0,0,0,0,0,0],"split_type":[0,0,0,0,0,0,0],"sum_hessian":[3.374063E3,1.5991996E3,1.7748635E3,4.637269E2,1.1354727E3,1.0351904E3,7.396731E2],"tree_param":{"num_deleted":"0","num_feature":"7","num_nodes":"7","size_leaf_vector":"0"}},{"base_weights":[-2.6861474E-1,-8.272762E-1,3.837074E-1,-9.270007E-1,-2.2178438E-1,-2.2178438E-1,8.44759E-1],"categories":[],"categories_nodes":[],"categories_segments":[],"categories_sizes":[],"default_left":[true,true,true,false,false,false,false],"id":68,"left_children":[1,3,5,-1,-1,-1,-1],"loss_changes":[1.2021528E3,1.6049622E2,6.5590063E2,0E0,0E0,0E0,0E0],"parents":[2147483647,0,0,1,1,2,2],"right_children":[2,4,6,-1,-1,-1,-1],"split_conditions":[1.4629864E1,3.2915645E0,6.809565E-2,-4.6350036E-2,-1.108922E-2,-1.108922E-2,4.223795E-2],"split_indices":[6,0,0,0,0,0,0],"split_type":[0,0,0,0,0,0,0],"sum_hessian":[3.2968752E3,1.7757877E3,1.5210875E3,1.6316216E3,1.4416612E2,4.5486795E2,1.0662195E3],"tree_param":{"num_deleted":"0","num_feature":"7","num_nodes":"7","size_leaf_vector":"0"}},{"base_weights":[-2.658142E-1,-8.661548E-1,3.1757012E-1,-9.00437E-1,-2.7429235E-1,-4.5234002E-2,1E0],"categories":[],"categories_nodes":[],"categories_segments":[],"categories_sizes":[],"default_left":[true,true,true,false,false,false,false],"id":69,"left_children":[1,3,5,-1,-1,-1,-1],"loss_changes":[1.1315938E3,4.278711E1,4.6731287E2,0E0,0E0,0E0,0E0],"parents":[2147483647,0,0,1,1,2,2],"right_children":[2,4,6,-1,-1,-1,-1],"split_conditions":[2.85E1,3.8318758E0,3.2964597E0,-4.502185E-2,-1.3714618E-2,-2.2617E-3,5E-2],"split_indices":[1,0,0,0,0,0,0],"split_type":[0,0,0,0,0,0,0],"sum_hessian":[3.2292231E3,1.591244E3,1.637979E3,1.5309895E3,6.0254574E1,1.1263105E3,5.1166843E2],"tree_param":{"num_deleted":"0","num_feature":"7","num_nodes":"7","size_leaf_vector":"0"}},{"base_weights":[-2.3950933E-1,-9.167178E-1,3.149265E-1,-9.500466E-1,-3.0089566E-1,-3.0089566E-1,7.8740627E-1],"categories":[],"categories_nodes":[],"categories_segments":[],"categories_sizes":[],"default_left":[true,true,true,false,false,false,false],"id":70,"left_children":[1,3,5,-1,-1,-1,-1],"loss_changes":[1.1974458E3,3.4592773E1,7.1597266E2,0E0,0E0,0E0,0E0],"parents":[2147483647,0,0,1,1,2,2],"right_children":[2,4,6,-1,-1,-1,-1],"split_conditions":[1.0257333E1,4.003093E0,1.7723304E-1,-4.750233E-2,-1.5044783E-2,-1.5044783E-2,3.9370313E-2],"split_indices":[6,0,0,0,0,0,0],"split_type":[0,0,0,0,0,0,0],"sum_hessian":[3.1874343E3,1.4345582E3,1.752876E3,1.3732389E3,6.1319305E1,5.8771893E2,1.1651571E3],"tree_param":{"num_deleted":"0","num_feature":"7","num_nodes":"7","size_leaf_vector":"0"}},{"base_weights":[-2.3772193E-1,-8.928831E-1,2.976855E-1,-9.395259E-1,-2.975988E-1,-2.975988E-1,7.3324263E-1],"categories":[],"categories_nodes":[],"categories_segments":[],"categories_sizes":[],"default_left":[true,true,true,false,false,false,false],"id":71,"left_children":[1,3,5,-1,-1,-1,-1],"loss_changes":[1.0907012E3,4.475818E1,6.146506E2,0E0,0E0,0E0,0E0],"parents":[2147483647,0,0,1,1,2,2],"right_children":[2,4,6,-1,-1,-1,-1],"split_conditions":[1.0760117E1,3.36724E0,1.6842291E-1,-4.6976294E-2,-1.4879941E-2,-1.4879941E-2,3.666213E-2],"split_indices":[6,0,0,0,0,0,0],"split_type":[0,0,0,0,0,0,0],"sum_hessian":[3.107618E3,1.3972183E3,1.7103995E3,1.3102424E3,8.6975914E1,5.6218317E2,1.1482164E3],"tree_param":{"num_deleted":"0","num_feature":"7","num_nodes":"7","size_leaf_vector":"0"}},{"base_weights":[-2.5670695E-1,3.310733E-1,-8.4226525E-1,-2.5559598E-1,7.029106E-1,-8.8416046E-1,-4.8023984E-1],"categories":[],"categories_nodes":[],"categories_segments":[],"categories_sizes":[],"default_left":[true,true,true,false,false,false,false],"id":72,"left_children":[1,3,5,-1,-1,-1,-1],"loss_changes":[1.0485845E3,4.9103E2,2.2721436E1,0E0,0E0,0E0,0E0],"parents":[2147483647,0,0,1,1,2,2],"right_children":[2,4,6,-1,-1,-1,-1],"split_conditions":[5.58155E4,1.5008956E-1,1.7968493E0,-1.2779799E-2,3.5145532E-2,-4.4208024E-2,-2.4011992E-2],"split_indices":[4,0,0,0,0,0,0],"split_type":[0,0,0,0,0,0,0],"sum_hessian":[3.0448096E3,1.5197386E3,1.5250709E3,4.1649783E2,1.1032408E3,1.3655958E3,1.5947505E2],"tree_param":{"num_deleted":"0","num_feature":"7","num_nodes":"7","size_leaf_vector":"0"}},{"base_weights":[-2.3967068E-1,-8.605082E-1,3.1668863E-1,-8.9173794E-1,-2.7190977E-1,-2.2342838E-2,1E0],"categories":[],"categories_nodes":[],"categories_segments":[],"categories_sizes":[],"default_left":[true,true,true,false,false,false,false],"id":73,"left_children":[1,3,5,-1,-1,-1,-1],"loss_changes":[1.0297806E3,3.1720581E1,4.0506866E2,0E0,0E0,0E0,0E0],"parents":[2147483647,0,0,1,1,2,2],"right_children":[2,4,6,-1,-1,-1,-1],"split_conditions":[2.85E1,3.8313375E0,3.2961597E0,-4.4586897E-2,-1.3595489E-2,-1.1171419E-3,5E-2],"split_indices":[1,0,0,0,0,0,0],"split_type":[0,0,0,0,0,0,0],"sum_hessian":[2.9795505E3,1.407918E3,1.5716326E3,1.3522775E3,5.564049E1,1.0900543E3,4.8157822E2],"tree_param":{"num_deleted":"0","num_feature":"7","num_nodes":"7","size_leaf_vector":"0"}},{"base_weights":[-2.3330553E-1,-7.458337E-1,4.2231342E-1,-8.5876095E-1,-1.6176014E-1,-1.6176014E-1,7.163558E-1],"categories":[],"categories_nodes":[],"categories_segments":[],"categories_sizes":[],"default_left":[true,true,true,false,false,false,false],"id":74,"left_children":[1,3,5,-1,-1,-1,-1],"loss_changes":[9.815336E2,1.6116779E2,2.602815E2,0E0,0E0,0E0,0E0],"parents":[2147483647,0,0,1,1,2,2],"right_children":[2,4,6,-1,-1,-1,-1],"split_conditions":[6.25E1,3.2963529E0,7.8052175E-1,-4.293805E-2,-8.088007E-3,-8.088007E-3,3.581779E-2],"split_indices":[1,0,0,0,0,0,0],"split_type":[0,0,0,0,0,0,0],"sum_hessian":[2.9190918E3,1.638254E3,1.2808379E3,1.481909E3,1.5634494E2,3.7714648E2,9.0369135E2],"tree_param":{"num_deleted":"0","num_feature":"7","num_nodes":"7","size_leaf_vector":"0"}},{"base_weights":[-2.313288E-1,-7.4879885E-1,3.9625266E-1,-8.9762276E-1,-1.762731E-1,-1.762731E-1,7.5147235E-1],"categories":[],"categories_nodes":[],"categories_segments":[],"categories_sizes":[],"default_left":[true,true,true,false,false,false,false],"id":75,"left_children":[1,3,5,-1,-1,-1,-1],"loss_changes":[9.322643E2,2.048075E2,4.0093433E2,0E0,0E0,0E0,0E0],"parents":[2147483647,0,0,1,1,2,2],"right_children":[2,4,6,-1,-1,-1,-1],"split_conditions":[1.724509E1,3.2964597E0,7.115593E-2,-4.488114E-2,-8.813655E-3,-8.813655E-3,3.7573617E-2],"split_indices":[6,0,0,0,0,0,0],"split_type":[0,0,0,0,0,0,0],"sum_hessian":[2.8687593E3,1.5722079E3,1.2965515E3,1.3836836E3,1.8852423E2,3.375502E2,9.590013E2],"tree_param":{"num_deleted":"0","num_feature":"7","num_nodes":"7","size_leaf_vector":"0"}},{"base_weights":[-2.164148E-1,-9.32491E-1,2.3383412E-1,-9.641709E-1,-6.2342906E-1,-3.4932846E-1,5.887653E-1],"categories":[],"categories_nodes":[],"categories_segments":[],"categories_sizes":[],"default_left":[true,true,true,false,false,false,false],"id":76,"left_children":[1,3,5,-1,-1,-1,-1],"loss_changes":[9.0555524E2,1.0014343E1,4.9968945E2,0E0,0E0,0E0,0E0],"parents":[2147483647,0,0,1,1,2,2],"right_children":[2,4,6,-1,-1,-1,-1],"split_conditions":[8.479237E0,6.5293875E0,6.809518E-2,-4.8208546E-2,-3.1171454E-2,-1.7466424E-2,2.9438267E-2],"split_indices":[6,6,0,0,0,0,0],"split_type":[0,0,0,0,0,0,0],"sum_hessian":[2.8070088E3,1.083206E3,1.7238026E3,9.805743E2,1.02631775E2,4.9030798E2,1.2334946E3],"tree_param":{"num_deleted":"0","num_feature":"7","num_nodes":"7","size_leaf_vector":"0"}},{"base_weights":[-2.2056974E-1,3.1563762E-1,-8.102641E-1,-2.4731325E-1,5.9793127E-1,-9.301975E-1,-6.524918E-1],"categories":[],"categories_nodes":[],"categories_segments":[],"categories_sizes":[],"default_left":[true,true,true,false,false,false,false],"id":77,"left_children":[1,3,5,-1,-1,-1,-1],"loss_changes":[8.727342E2,3.597553E2,2.4263916E1,0E0,0E0,0E0,0E0],"parents":[2147483647,0,0,1,1,2,2],"right_children":[2,4,6,-1,-1,-1,-1],"split_conditions":[5.532714E4,2.3593377E-2,5.6047507E-2,-1.23656625E-2,2.9896563E-2,-4.6509873E-2,-3.262459E-2],"split_indices":[4,0,0,0,0,0,0],"split_type":[0,0,0,0,0,0,0],"sum_hessian":[2.758275E3,1.444898E3,1.3133768E3,3.0088467E2,1.1440133E3,7.433843E2,5.6999255E2],"tree_param":{"num_deleted":"0","num_feature":"7","num_nodes":"7","size_leaf_vector":"0"}},{"base_weights":[-2.1746093E-1,-8.4100133E-1,2.7930978E-1,-8.784574E-1,-2.8084576E-1,-1.7217567E-2,9.5906043E-1],"categories":[],"categories_nodes":[],"categories_segments":[],"categories_sizes":[],"default_left":[true,true,true,false,false,false,false],"id":78,"left_children":[1,3,5,-1,-1,-1,-1],"loss_changes":[8.3637683E2,3.2884766E1,3.029984E2,0E0,0E0,0E0,0E0],"parents":[2147483647,0,0,1,1,2,2],"right_children":[2,4,6,-1,-1,-1,-1],"split_conditions":[2.85E1,3.8315496E0,3.2964597E0,-4.392287E-2,-1.4042288E-2,-8.608784E-4,4.795302E-2],"split_indices":[1,0,0,0,0,0,0],"split_type":[0,0,0,0,0,0,0],"sum_hessian":[2.6983513E3,1.1962013E3,1.50215E3,1.143131E3,5.307035E1,1.0465769E3,4.5557312E2],"tree_param":{"num_deleted":"0","num_feature":"7","num_nodes":"7","size_leaf_vector":"0"}},{"base_weights":[-2.0765917E-1,-4.3535072E-1,1E0,-7.533471E-1,2.8232464E-1,2.8232464E-1,1E0],"categories":[],"categories_nodes":[],"categories_segments":[],"categories_sizes":[],"default_left":[true,true,true,false,false,false,false],"id":79,"left_children":[1,3,5,-1,-1,-1,-1],"loss_changes":[8.024124E2,7.603695E2,1.0073126E2,0E0,0E0,0E0,0E0],"parents":[2147483647,0,0,1,1,2,2],"right_children":[2,4,6,-1,-1,-1,-1],"split_conditions":[8.512894E-1,3.2964597E0,1.4380395E-1,-3.7667356E-2,1.4116232E-2,1.4116232E-2,5E-2],"split_indices":[2,0,0,0,0,0,0],"split_type":[0,0,0,0,0,0,0],"sum_hessian":[2.6541377E3,2.2685376E3,3.8560007E2,1.7977727E3,4.7076486E2,8.462605E1,3.00974E2],"tree_param":{"num_deleted":"0","num_feature":"7","num_nodes":"7","size_leaf_vector":"0"}},{"base_weights":[-1.9859686E-1,-9.105335E-1,2.2508016E-1,-9.70212E-1,-6.843431E-1,-3.4272665E-1,5.4786026E-1],"categories":[],"categories_nodes":[],"categories_segments":[],"categories_sizes":[],"default_left":[true,true,true,false,false,false,false],"id":80,"left_children":[1,3,5,-1,-1,-1,-1],"loss_changes":[7.8257056E2,1.2401306E1,4.217145E2,0E0,0E0,0E0,0E0],"parents":[2147483647,0,0,1,1,2,2],"right_children":[2,4,6,-1,-1,-1,-1],"split_conditions":[8.651125E0,4.9974756E0,6.833758E-2,-4.85106E-2,-3.4217156E-2,-1.7136334E-2,2.7393013E-2],"split_indices":[6,6,0,0,0,0,0],"split_type":[0,0,0,0,0,0,0],"sum_hessian":[2.592782E3,9.668916E2,1.6258904E3,7.62439E2,2.0445255E2,4.337306E2,1.1921598E3],"tree_param":{"num_deleted":"0","num_feature":"7","num_nodes":"7","size_leaf_vector":"0"}},{"base_weights":[-2.1143882E-1,-8.3309823E-1,2.591498E-1,-9.450536E-1,-5.31441E-1,-2.4502186E-2,9.309755E-1],"categories":[],"categories_nodes":[],"categories_segments":[],"categories_sizes":[],"default_left":[true,true,true,false,false,false,false],"id":81,"left_children":[1,3,5,-1,-1,-1,-1],"loss_changes":[7.434533E2,3.6472595E1,2.7572253E2,0E0,0E0,0E0,0E0],"parents":[2147483647,0,0,1,1,2,2],"right_children":[2,4,6,-1,-1,-1,-1],"split_conditions":[2.85E1,4.5E0,3.2934103E0,-4.725268E-2,-2.6572049E-2,-1.2251093E-3,4.6548776E-2],"split_indices":[1,1,0,0,0,0,0],"split_type":[0,0,0,0,0,0,0],"sum_hessian":[2.5395845E3,1.0938331E3,1.4457513E3,7.962023E2,2.9763083E2,1.0172297E3,4.2852167E2],"tree_param":{"num_deleted":"0","num_feature":"7","num_nodes":"7","size_leaf_vector":"0"}},{"base_weights":[-1.7695108E-1,-4.5863655E-1,9.216696E-1,-7.895307E-1,2.3151653E-1,2.3151653E-1,1E0],"categories":[],"categories_nodes":[],"categories_segments":[],"categories_sizes":[],"default_left":[true,true,true,false,false,false,false],"id":82,"left_children":[1,3,5,-1,-1,-1,-1],"loss_changes":[7.7993994E2,6.1857697E2,1.482891E2,0E0,0E0,0E0,0E0],"parents":[2147483647,0,0,1,1,2,2],"right_children":[2,4,6,-1,-1,-1,-1],"split_conditions":[8.110093E-1,2.8085628E0,1.4312755E-1,-3.9476536E-2,1.1575826E-2,1.1575826E-2,5E-2],"split_indices":[2,0,0,0,0,0,0],"split_type":[0,0,0,0,0,0,0],"sum_hessian":[2.5179148E3,2.004536E3,5.1337885E2,1.5086724E3,4.958636E2,1.1704023E2,3.9633862E2],"tree_param":{"num_deleted":"0","num_feature":"7","num_nodes":"7","size_leaf_vector":"0"}},{"base_weights":[-2.0005977E-1,-9.010111E-1,1.9132386E-1,-9.4984335E-1,-5.4109895E-1,-3.5484362E-1,4.4979882E-1],"categories":[],"categories_nodes":[],"categories_segments":[],"categories_sizes":[],"default_left":[true,true,true,false,false,false,false],"id":83,"left_children":[1,3,5,-1,-1,-1,-1],"loss_changes":[6.750041E2,1.4979248E1,3.137736E2,0E0,0E0,0E0,0E0],"parents":[2147483647,0,0,1,1,2,2],"right_children":[2,4,6,-1,-1,-1,-1],"split_conditions":[8.475614E0,6.2029734E0,2.95888E-2,-4.749217E-2,-2.7054949E-2,-1.7742181E-2,2.248994E-2],"split_indices":[6,6,0,0,0,0,0],"split_type":[0,0,0,0,0,0,0],"sum_hessian":[2.4588293E3,8.805321E2,1.5782974E3,7.738925E2,1.06639565E2,3.668441E2,1.2114532E3],"tree_param":{"num_deleted":"0","num_feature":"7","num_nodes":"7","size_leaf_vector":"0"}},{"base_weights":[-1.7203085E-1,-4.5182228E-1,8.748074E-1,-7.802955E-1,2.1149257E-1,2.1149257E-1,1E0],"categories":[],"categories_nodes":[],"categories_segments":[],"categories_sizes":[],"default_left":[true,true,true,false,false,false,false],"id":84,"left_children":[1,3,5,-1,-1,-1,-1],"loss_changes":[7.0968036E2,5.580961E2,1.6171765E2,0E0,0E0,0E0,0E0],"parents":[2147483647,0,0,1,1,2,2],"right_children":[2,4,6,-1,-1,-1,-1],"split_conditions":[8.110101E-1,2.8085628E0,2.3879817E-1,-3.9014775E-2,1.0574629E-2,1.0574629E-2,5E-2],"split_indices":[2,0,0,0,0,0,0],"split_type":[0,0,0,0,0,0,0],"sum_hessian":[2.4206245E3,1.9105538E3,5.1007074E2,1.4214653E3,4.890885E2,1.3393214E2,3.761386E2],"tree_param":{"num_deleted":"0","num_feature":"7","num_nodes":"7","size_leaf_vector":"0"}},{"base_weights":[-1.5926939E-1,-7.951137E-1,2.7509245E-1,-9.0423524E-1,-5.124865E-1,1.750044E-2,8.829254E-1],"categories":[],"categories_nodes":[],"categories_segments":[],"categories_sizes":[],"default_left":[true,true,true,false,false,false,false],"id":85,"left_children":[1,3,5,-1,-1,-1,-1],"loss_changes":[6.562622E2,2.9277588E1,2.2106924E2,0E0,0E0,0E0,0E0],"parents":[2147483647,0,0,1,1,2,2],"right_children":[2,4,6,-1,-1,-1,-1],"split_conditions":[2.85E1,4.5E0,3.2964597E0,-4.5211762E-2,-2.5624325E-2,8.75022E-4,4.414627E-2],"split_indices":[1,1,0,0,0,0,0],"split_type":[0,0,0,0,0,0,0],"sum_hessian":[2.374364E3,9.6334E2,1.411024E3,6.93415E2,2.6992505E2,9.9175806E2,4.1926593E2],"tree_param":{"num_deleted":"0","num_feature":"7","num_nodes":"7","size_leaf_vector":"0"}},{"base_weights":[-1.5649639E-1,-8.9651E-1,2.2454193E-1,-9.538828E-1,-4.9323887E-1,-3.3598405E-1,4.6829244E-1],"categories":[],"categories_nodes":[],"categories_segments":[],"categories_sizes":[],"default_left":[true,true,true,false,false,false,false],"id":86,"left_children":[1,3,5,-1,-1,-1,-1],"loss_changes":[6.618099E2,1.7985962E1,2.73811E2,0E0,0E0,0E0,0E0],"parents":[2147483647,0,0,1,1,2,2],"right_children":[2,4,6,-1,-1,-1,-1],"split_conditions":[8.47555E0,6.185043E0,6.809518E-2,-4.7694143E-2,-2.4661943E-2,-1.6799202E-2,2.3414623E-2],"split_indices":[6,6,0,0,0,0,0],"split_type":[0,0,0,0,0,0,0],"sum_hessian":[2.3453499E3,7.967095E2,1.5486403E3,6.962846E2,1.0042481E2,3.7349152E2,1.1751488E3],"tree_param":{"num_deleted":"0","num_feature":"7","num_nodes":"7","size_leaf_vector":"0"}},{"base_weights":[-1.7361666E-1,2.9030377E-1,-7.622354E-1,1.8264873E-2,8.9190704E-1,-9.047575E-1,-6.3620496E-1],"categories":[],"categories_nodes":[],"categories_segments":[],"categories_sizes":[],"default_left":[true,true,true,false,false,false,false],"id":87,"left_children":[1,3,5,-1,-1,-1,-1],"loss_changes":[6.278885E2,2.104747E2,1.7626953E1,0E0,0E0,0E0,0E0],"parents":[2147483647,0,0,1,1,2,2],"right_children":[2,4,6,-1,-1,-1,-1],"split_conditions":[5.675822E4,3.2942426E0,2.0685319E-2,9.132437E-4,4.4595353E-2,-4.5237876E-2,-3.181025E-2],"split_indices":[4,0,0,0,0,0,0],"split_type":[0,0,0,0,0,0,0],"sum_hessian":[2.2975388E3,1.285152E3,1.0123869E3,8.856847E2,3.9946725E2,4.7220877E2,5.401781E2],"tree_param":{"num_deleted":"0","num_feature":"7","num_nodes":"7","size_leaf_vector":"0"}},{"base_weights":[-1.4937568E-1,-9.2012656E-1,2.0908605E-1,-9.673113E-1,-6.7718446E-1,-3.5552025E-1,4.5362392E-1],"categories":[],"categories_nodes":[],"categories_segments":[],"categories_sizes":[],"default_left":[true,true,true,false,false,false,false],"id":88,"left_children":[1,3,5,-1,-1,-1,-1],"loss_changes":[6.1633386E2,7.462219E0,2.879596E2,0E0,0E0,0E0,0E0],"parents":[2147483647,0,0,1,1,2,2],"right_children":[2,4,6,-1,-1,-1,-1],"split_conditions":[7.566705E0,5.104266E0,3.1184763E-2,-4.8365567E-2,-3.3859223E-2,-1.7776012E-2,2.2681197E-2],"split_indices":[6,6,0,0,0,0,0],"split_type":[0,0,0,0,0,0,0],"sum_hessian":[2.2290962E3,7.071158E2,1.5219805E3,5.896173E2,1.17498436E2,3.414237E2,1.1805568E3],"tree_param":{"num_deleted":"0","num_feature":"7","num_nodes":"7","size_leaf_vector":"0"}},{"base_weights":[-1.393822E-1,-6.4700377E-1,3.6665148E-1,-7.9681563E-1,-1.4017615E-1,-1.4017615E-1,5.6783295E-1],"categories":[],"categories_nodes":[],"categories_segments":[],"categories_sizes":[],"default_left":[true,true,true,false,false,false,false],"id":89,"left_children":[1,3,5,-1,-1,-1,-1],"loss_changes":[5.733636E2,1.2054794E2,1.711684E2,0E0,0E0,0E0,0E0],"parents":[2147483647,0,0,1,1,2,2],"right_children":[2,4,6,-1,-1,-1,-1],"split_conditions":[1.8083918E1,3.2964597E0,2.2315755E-2,-3.9840784E-2,-7.0088073E-3,-7.0088073E-3,2.8391648E-2],"split_indices":[6,0,0,0,0,0,0],"split_type":[0,0,0,0,0,0,0],"sum_hessian":[2.230161E3,1.1131946E3,1.1169663E3,9.4241064E2,1.7078397E2,2.0357187E2,9.133945E2],"tree_param":{"num_deleted":"0","num_feature":"7","num_nodes":"7","size_leaf_vector":"0"}},{"base_weights":[-1.40204E-1,-7.725186E-1,2.671061E-1,-8.877508E-1,-4.9877036E-1,9.036562E-3,7.541313E-1],"categories":[],"categories_nodes":[],"categories_segments":[],"categories_sizes":[],"default_left":[true,true,false,false,false,false,false],"id":90,"left_children":[1,3,5,-1,-1,-1,-1],"loss_changes":[5.637691E2,2.660852E1,1.6736069E2,0E0,0E0,0E0,0E0],"parents":[2147483647,0,0,1,1,2,2],"right_children":[2,4,6,-1,-1,-1,-1],"split_conditions":[2.85E1,4.5E0,2.855E2,-4.438754E-2,-2.4938518E-2,4.5182812E-4,3.7706565E-2],"split_indices":[1,1,1,0,0,0,0],"split_type":[0,0,0,0,0,0,0],"sum_hessian":[2.1871843E3,8.565563E2,1.330628E3,6.0123004E2,2.5532626E2,8.704201E2,4.6020792E2],"tree_param":{"num_deleted":"0","num_feature":"7","num_nodes":"7","size_leaf_vector":"0"}},{"base_weights":[-1.2917314E-1,-4.0854684E-1,8.2229173E-1,-7.006183E-1,2.0687245E-1,2.0687245E-1,1E0],"categories":[],"categories_nodes":[],"categories_segments":[],"categories_sizes":[],"default_left":[true,true,true,false,false,false,false],"id":91,"left_children":[1,3,5,-1,-1,-1,-1],"loss_changes":[5.766434E2,4.3136444E2,1.13129456E2,0E0,0E0,0E0,0E0],"parents":[2147483647,0,0,1,1,2,2],"right_children":[2,4,6,-1,-1,-1,-1],"split_conditions":[8.110101E-1,3.2963529E0,2.4915306E-1,-3.5030916E-2,1.0343622E-2,1.0343622E-2,5E-2],"split_indices":[2,0,0,0,0,0,0],"split_type":[0,0,0,0,0,0,0],"sum_hessian":[2.1670833E3,1.6756433E3,4.9143985E2,1.2939235E3,3.817199E2,1.2259584E2,3.68844E2],"tree_param":{"num_deleted":"0","num_feature":"7","num_nodes":"7","size_leaf_vector":"0"}},{"base_weights":[-1.4921908E-1,-9.0760237E-1,1.7442505E-1,-9.666921E-1,-6.663552E-1,-3.6658865E-1,3.72888E-1],"categories":[],"categories_nodes":[],"categories_segments":[],"categories_sizes":[],"default_left":[true,true,true,false,false,false,false],"id":92,"left_children":[1,3,5,-1,-1,-1,-1],"loss_changes":[5.281471E2,8.530273E0,2.1696005E2,0E0,0E0,0E0,0E0],"parents":[2147483647,0,0,1,1,2,2],"right_children":[2,4,6,-1,-1,-1,-1],"split_conditions":[7.7648716E0,4.881521E0,2.9589478E-2,-4.8334606E-2,-3.331776E-2,-1.8329432E-2,1.86444E-2],"split_indices":[6,6,0,0,0,0,0],"split_type":[0,0,0,0,0,0,0],"sum_hessian":[2.1501309E3,6.425838E2,1.5075471E3,5.1374335E2,1.2884042E2,3.040685E2,1.2034786E3],"tree_param":{"num_deleted":"0","num_feature":"7","num_nodes":"7","size_leaf_vector":"0"}},{"base_weights":[-1.1062905E-1,-8.8870907E-1,2.0149587E-1,-9.4286495E-1,-6.34527E-1,-3.436066E-1,3.9095557E-1],"categories":[],"categories_nodes":[],"categories_segments":[],"categories_sizes":[],"default_left":[true,true,true,false,false,false,false],"id":93,"left_children":[1,3,5,-1,-1,-1,-1],"loss_changes":[5.153345E2,7.7640686E0,2.0378094E2,0E0,0E0,0E0,0E0],"parents":[2147483647,0,0,1,1,2,2],"right_children":[2,4,6,-1,-1,-1,-1],"split_conditions":[7.735716E0,5.104266E0,3.1182311E-2,-4.7143247E-2,-3.1726353E-2,-1.718033E-2,1.954778E-2],"split_indices":[6,6,0,0,0,0,0],"split_type":[0,0,0,0,0,0,0],"sum_hessian":[2.1202192E3,6.0648846E2,1.5137308E3,4.9773245E2,1.0875601E2,3.0271555E2,1.2110154E3],"tree_param":{"num_deleted":"0","num_feature":"7","num_nodes":"7","size_leaf_vector":"0"}},{"base_weights":[-1.2916347E-1,-4.046817E-1,7.4049795E-1,-7.003617E-1,1.6790812E-1,1.6790812E-1,1E0],"categories":[],"categories_nodes":[],"categories_segments":[],"categories_sizes":[],"default_left":[true,true,true,false,false,false,false],"id":94,"left_children":[1,3,5,-1,-1,-1,-1],"loss_changes":[5.0173422E2,3.9841888E2,1.145943E2,0E0,0E0,0E0,0E0],"parents":[2147483647,0,0,1,1,2,2],"right_children":[2,4,6,-1,-1,-1,-1],"split_conditions":[8.0874646E-1,3.2962873E0,6.4889586E-1,-3.5018086E-2,8.395406E-3,8.395406E-3,5E-2],"split_indices":[2,0,0,0,0,0,0],"split_type":[0,0,0,0,0,0,0],"sum_hessian":[2.0917324E3,1.5888895E3,5.0284283E2,1.2189442E3,3.6994534E2,1.6659767E2,3.3624518E2],"tree_param":{"num_deleted":"0","num_feature":"7","num_nodes":"7","size_leaf_vector":"0"}},{"base_weights":[-1.301474E-1,-6.560185E-1,3.246293E-1,-9.0366167E-1,-3.5834426E-1,5.938224E-2,6.7350435E-1],"categories":[],"categories_nodes":[],"categories_segments":[],"categories_sizes":[],"default_left":[true,true,false,false,false,false,false],"id":95,"left_children":[1,3,5,-1,-1,-1,-1],"loss_changes":[4.8963373E2,6.9661835E1,1.0157464E2,0E0,0E0,0E0,0E0],"parents":[2147483647,0,0,1,1,2,2],"right_children":[2,4,6,-1,-1,-1,-1],"split_conditions":[5.75E1,4.5E0,2.745E2,-4.5183085E-2,-1.7917214E-2,2.969112E-3,3.367522E-2],"split_indices":[1,1,1,0,0,0,0],"split_type":[0,0,0,0,0,0,0],"sum_hessian":[2.0454675E3,9.4838306E2,1.0970845E3,5.1658575E2,4.317973E2,6.2390466E2,4.7317984E2],"tree_param":{"num_deleted":"0","num_feature":"7","num_nodes":"7","size_leaf_vector":"0"}},{"base_weights":[-1.323287E-1,2.7233112E-1,-7.140421E-1,2.9764146E-2,8.147963E-1,-8.7657905E-1,-6.0753393E-1],"categories":[],"categories_nodes":[],"categories_segments":[],"categories_sizes":[],"default_left":[true,true,true,false,false,false,false],"id":96,"left_children":[1,3,5,-1,-1,-1,-1],"loss_changes":[4.7889728E2,1.5788232E2,1.3915009E1,0E0,0E0,0E0,0E0],"parents":[2147483647,0,0,1,1,2,2],"right_children":[2,4,6,-1,-1,-1,-1],"split_conditions":[5.743152E4,3.3118837E0,1.0480115E-2,1.4882073E-3,4.0739816E-2,-4.3828953E-2,-3.0376697E-2],"split_indices":[4,0,0,0,0,0,0],"split_type":[0,0,0,0,0,0,0],"sum_hessian":[2.0326058E3,1.1990426E3,8.3356335E2,8.292795E2,3.6976306E2,3.271245E2,5.064388E2],"tree_param":{"num_deleted":"0","num_feature":"7","num_nodes":"7","size_leaf_vector":"0"}},{"base_weights":[-1.0947288E-1,-8.5950136E-1,1.761301E-1,-9.5583165E-1,-5.817602E-1,-4.0378932E-2,8.272068E-1],"categories":[],"categories_nodes":[],"categories_segments":[],"categories_sizes":[],"default_left":[true,true,true,false,false,false,false],"id":97,"left_children":[1,3,5,-1,-1,-1,-1],"loss_changes":[4.2847534E2,1.4201904E1,2.0428308E2,0E0,0E0,0E0,0E0],"parents":[2147483647,0,0,1,1,2,2],"right_children":[2,4,6,-1,-1,-1,-1],"split_conditions":[7.735716E0,4.3365955E0,3.2934103E0,-4.779158E-2,-2.9088011E-2,-2.0189467E-3,4.136034E-2],"split_indices":[6,6,0,0,0,0,0],"split_type":[0,0,0,0,0,0,0],"sum_hessian":[1.9985482E3,5.505988E2,1.4479495E3,4.069967E2,1.4360207E2,1.0873125E3,3.6063693E2],"tree_param":{"num_deleted":"0","num_feature":"7","num_nodes":"7","size_leaf_vector":"0"}},{"base_weights":[-9.5531896E-2,-8.1460303E-1,2.1378715E-1,-9.1744506E-1,-3.0040795E-1,4.0230237E-2,1E0],"categories":[],"categories_nodes":[],"categories_segments":[],"categories_sizes":[],"default_left":[true,true,true,false,false,false,false],"id":98,"left_children":[1,3,5,-1,-1,-1,-1],"loss_changes":[4.3699408E2,3.4295593E1,2.2797272E2,0E0,0E0,0E0,0E0],"parents":[2147483647,0,0,1,1,2,2],"right_children":[2,4,6,-1,-1,-1,-1],"split_conditions":[5.105518E-1,3.3574262E0,9.1720957E-1,-4.5872252E-2,-1.50203975E-2,2.011512E-3,5E-2],"split_indices":[2,0,2,0,0,0,0],"split_type":[0,0,0,0,0,0,0],"sum_hessian":[1.9629207E3,5.8991565E2,1.373005E3,4.996684E2,9.024727E1,1.169578E3,2.0342697E2],"tree_param":{"num_deleted":"0","num_feature":"7","num_nodes":"7","size_leaf_vector":"0"}},{"base_weights":[-1.1475843E-1,-8.548947E-1,1.9423862E-1,-9.3783015E-1,-4.1114387E-1,2.4129355E-2,1E0],"categories":[],"categories_nodes":[],"categories_segments":[],"categories_sizes":[],"default_left":[true,true,true,false,false,false,false],"id":99,"left_children":[1,3,5,-1,-1,-1,-1],"loss_changes":[4.4922748E2,2.0904724E1,2.1918408E2,0E0,0E0,0E0,0E0],"parents":[2147483647,0,0,1,1,2,2],"right_children":[2,4,6,-1,-1,-1,-1],"split_conditions":[5.105518E-1,3.3574262E0,9.1721106E-1,-4.6891507E-2,-2.0557193E-2,1.2064677E-3,5E-2],"split_indices":[2,0,2,0,0,0,0],"split_type":[0,0,0,0,0,0,0],"sum_hessian":[1.9625398E3,5.7749866E2,1.3850411E3,4.8562393E2,9.187477E1,1.1751478E3,2.098933E2],"tree_param":{"num_deleted":"0","num_feature":"7","num_nodes":"7","size_leaf_vector":"0"}},{"base_weights":[-8.3941944E-2,-8.407529E-1,2.0353977E-1,-9.7684413E-1,-5.9111595E-1,1.0622284E-2,7.793658E-1],"categories":[],"categories_nodes":[],"categories_segments":[],"categories_sizes":[],"default_left":[true,true,true,false,false,false,false],"id":100,"left_children":[1,3,5,-1,-1,-1,-1],"loss_changes":[4.2196475E2,1.7560486E1,1.561551E2,0E0,0E0,0E0,0E0],"parents":[2147483647,0,0,1,1,2,2],"right_children":[2,4,6,-1,-1,-1,-1],"split_conditions":[8.475614E0,3.7309437E0,3.2942426E0,-4.8842207E-2,-2.9555798E-2,5.3111423E-4,3.896829E-2],"split_indices":[6,6,0,0,0,0,0],"split_type":[0,0,0,0,0,0,0],"sum_hessian":[1.9376632E3,5.328865E2,1.4047767E3,3.4299017E2,1.8989632E2,1.0530084E3,3.5176822E2],"tree_param":{"num_deleted":"0","num_feature":"7","num_nodes":"7","size_leaf_vector":"0"}},{"base_weights":[-9.068488E-2,-8.437963E-1,1.8010817E-1,-9.2772305E-1,-3.3184406E-1,1.982942E-2,1E0],"categories":[],"categories_nodes":[],"categories_segments":[],"categories_sizes":[],"default_left":[true,true,true,false,false,false,false],"id":101,"left_children":[1,3,5,-1,-1,-1,-1],"loss_changes":[3.9418146E2,2.419571E1,2.0480814E2,0E0,0E0,0E0,0E0],"parents":[2147483647,0,0,1,1,2,2],"right_children":[2,4,6,-1,-1,-1,-1],"split_conditions":[4.9944314E-1,3.8796341E0,9.1720957E-1,-4.6386153E-2,-1.6592203E-2,9.91471E-4,5E-2],"split_indices":[2,0,2,0,0,0,0],"split_type":[0,0,0,0,0,0,0],"sum_hessian":[1.9311104E3,5.1016312E2,1.4209473E3,4.447667E2,6.53964E1,1.2081514E3,2.1279597E2],"tree_param":{"num_deleted":"0","num_feature":"7","num_nodes":"7","size_leaf_vector":"0"}},{"base_weights":[-7.126755E-2,3.1279486E-1,-6.526966E-1,9.373322E-2,8.008904E-1,-8.4288245E-1,-5.409758E-1],"categories":[],"categories_nodes":[],"categories_segments":[],"categories_sizes":[],"default_left":[true,true,true,false,false,false,false],"id":102,"left_children":[1,3,5,-1,-1,-1,-1],"loss_changes":[4.2385114E2,1.2215608E2,1.5585968E1,0E0,0E0,0E0,0E0],"parents":[2147483647,0,0,1,1,2,2],"right_children":[2,4,6,-1,-1,-1,-1],"split_conditions":[5.5869184E4,3.2934103E0,8.3880015E-3,4.686661E-3,4.004452E-2,-4.2144123E-2,-2.704879E-2],"split_indices":[4,0,0,0,0,0,0],"split_type":[0,0,0,0,0,0,0],"sum_hessian":[1.896167E3,1.1421698E3,7.5399713E2,7.891737E2,3.5299615E2,2.7659552E2,4.7740164E2],"tree_param":{"num_deleted":"0","num_feature":"7","num_nodes":"7","size_leaf_vector":"0"}},{"base_weights":[-8.9556985E-2,2.6855722E-1,-6.5749663E-1,5.39589E-2,7.664334E-1,-8.681821E-1,-5.4744774E-1],"categories":[],"categories_nodes":[],"categories_segments":[],"categories_sizes":[],"default_left":[true,true,true,false,false,false,false],"id":103,"left_children":[1,3,5,-1,-1,-1,-1],"loss_changes":[3.8263922E2,1.2325385E2,1.6391937E1,0E0,0E0,0E0,0E0],"parents":[2147483647,0,0,1,1,2,2],"right_children":[2,4,6,-1,-1,-1,-1],"split_conditions":[5.7431695E4,3.2934103E0,3.4794605E-3,2.697945E-3,3.832167E-2,-4.3409105E-2,-2.7372388E-2],"split_indices":[4,0,0,0,0,0,0],"split_type":[0,0,0,0,0,0,0],"sum_hessian":[1.879465E3,1.1529806E3,7.2648444E2,8.064757E2,3.4650485E2,2.4690428E2,4.7958017E2],"tree_param":{"num_deleted":"0","num_feature":"7","num_nodes":"7","size_leaf_vector":"0"}},{"base_weights":[-8.505505E-2,-5.9176457E-1,3.01004E-1,-8.5691106E-1,-3.0071586E-1,2.0011851E-1,1E0],"categories":[],"categories_nodes":[],"categories_segments":[],"categories_sizes":[],"default_left":[true,true,false,false,false,false,false],"id":104,"left_children":[1,3,5,-1,-1,-1,-1],"loss_changes":[3.6302832E2,6.166696E1,8.871924E1,0E0,0E0,0E0,0E0],"parents":[2147483647,0,0,1,1,2,2],"right_children":[2,4,6,-1,-1,-1,-1],"split_conditions":[5.55E1,4.5E0,7.185E2,-4.2845555E-2,-1.5035793E-2,1.0005926E-2,5E-2],"split_indices":[1,1,1,0,0,0,0],"split_type":[0,0,0,0,0,0,0],"sum_hessian":[1.8538746E3,8.014388E2,1.0524358E3,4.1836368E2,3.830751E2,9.436911E2,1.0874475E2],"tree_param":{"num_deleted":"0","num_feature":"7","num_nodes":"7","size_leaf_vector":"0"}},{"base_weights":[-5.634984E-2,-7.852172E-1,2.2146355E-1,-8.8604045E-1,-2.9502857E-1,-2.8187683E-1,4.1711938E-1],"categories":[],"categories_nodes":[],"categories_segments":[],"categories_sizes":[],"default_left":[true,true,true,false,false,false,false],"id":105,"left_children":[1,3,5,-1,-1,-1,-1],"loss_changes":[3.6643277E2,2.4419586E1,1.7278639E2,0E0,0E0,0E0,0E0],"parents":[2147483647,0,0,1,1,2,2],"right_children":[2,4,6,-1,-1,-1,-1],"split_conditions":[5.105518E-1,3.3574262E0,5.1532276E-2,-4.4302024E-2,-1.4751429E-2,-1.4093841E-2,2.0855969E-2],"split_indices":[2,0,0,0,0,0,0],"split_type":[0,0,0,0,0,0,0],"sum_hessian":[1.807783E3,4.9838928E2,1.3093937E3,4.1269714E2,8.569213E1,2.771138E2,1.0322799E3],"tree_param":{"num_deleted":"0","num_feature":"7","num_nodes":"7","size_leaf_vector":"0"}},{"base_weights":[-6.9464095E-2,-8.90204E-1,1.7958848E-1,-9.1592973E-1,-4.0291578E-1,-3.5530776E-1,3.1793076E-1],"categories":[],"categories_nodes":[],"categories_segments":[],"categories_sizes":[],"default_left":[true,true,true,false,false,false,false],"id":106,"left_children":[1,3,5,-1,-1,-1,-1],"loss_changes":[3.7433987E2,4.975342E0,1.26480774E2,0E0,0E0,0E0,0E0],"parents":[2147483647,0,0,1,1,2,2],"right_children":[2,4,6,-1,-1,-1,-1],"split_conditions":[7.0062084E0,6.3017664E0,2.355542E-2,-4.5796487E-2,-2.0145789E-2,-1.7765388E-2,1.5896538E-2],"split_indices":[6,6,0,0,0,0,0],"split_type":[0,0,0,0,0,0,0],"sum_hessian":[1.8295599E3,4.253306E2,1.4042294E3,4.0316635E2,2.2164263E1,2.3884727E2,1.1653821E3],"tree_param":{"num_deleted":"0","num_feature":"7","num_nodes":"7","size_leaf_vector":"0"}},{"base_weights":[-5.8271535E-2,-3.305142E-1,6.653456E-1,-6.426546E-1,1.6741571E-1,1.6741571E-1,9.1656345E-1],"categories":[],"categories_nodes":[],"categories_segments":[],"categories_sizes":[],"default_left":[true,true,true,false,false,false,false],"id":107,"left_children":[1,3,5,-1,-1,-1,-1],"loss_changes":[3.5494272E2,2.7590952E2,6.435861E1,0E0,0E0,0E0,0E0],"parents":[2147483647,0,0,1,1,2,2],"right_children":[2,4,6,-1,-1,-1,-1],"split_conditions":[8.1010485E-1,2.8088632E0,6.5773726E-1,-3.213273E-2,8.370786E-3,8.370786E-3,4.5828175E-2],"split_indices":[2,0,0,0,0,0,0],"split_type":[0,0,0,0,0,0,0],"sum_hessian":[1.7996283E3,1.3080505E3,4.9157773E2,9.140918E2,3.9395883E2,1.602433E2,3.3133444E2],"tree_param":{"num_deleted":"0","num_feature":"7","num_nodes":"7","size_leaf_vector":"0"}},{"base_weights":[-5.8861606E-2,2.8651386E-1,-6.137353E-1,1.0327879E-1,7.4631244E-1,-8.157508E-1,-5.118102E-1],"categories":[],"categories_nodes":[],"categories_segments":[],"categories_sizes":[],"default_left":[true,true,true,false,false,false,false],"id":108,"left_children":[1,3,5,-1,-1,-1,-1],"loss_changes":[3.3992212E2,9.204157E1,1.3593414E1,0E0,0E0,0E0,0E0],"parents":[2147483647,0,0,1,1,2,2],"right_children":[2,4,6,-1,-1,-1,-1],"split_conditions":[5.525971E4,3.3118837E0,7.721686E-3,5.1639397E-3,3.7315622E-2,-4.078754E-2,-2.559051E-2],"split_indices":[4,0,0,0,0,0,0],"split_type":[0,0,0,0,0,0,0],"sum_hessian":[1.771838E3,1.0923805E3,6.7945746E2,7.8197784E2,3.1040268E2,2.2550447E2,4.5395297E2],"tree_param":{"num_deleted":"0","num_feature":"7","num_nodes":"7","size_leaf_vector":"0"}},{"base_weights":[-7.738339E-2,-5.775478E-1,3.0159798E-1,-7.6768625E-1,-1.379749E-1,9.85787E-2,1E0],"categories":[],"categories_nodes":[],"categories_segments":[],"categories_sizes":[],"default_left":[true,true,true,false,false,false,false],"id":109,"left_children":[1,3,5,-1,-1,-1,-1],"loss_changes":[3.3175806E2,7.953746E1,1.4567401E2,0E0,0E0,0E0,0E0],"parents":[2147483647,0,0,1,1,2,2],"right_children":[2,4,6,-1,-1,-1,-1],"split_conditions":[6.008409E-1,3.1436071E0,9.1720957E-1,-3.8384315E-2,-6.8987454E-3,4.928935E-3,5E-2],"split_indices":[2,0,2,0,0,0,0],"split_type":[0,0,0,0,0,0,0],"sum_hessian":[1.7482937E3,7.53427E2,9.948667E2,5.672459E2,1.8618108E2,7.773093E2,2.1755737E2],"tree_param":{"num_deleted":"0","num_feature":"7","num_nodes":"7","size_leaf_vector":"0"}},{"base_weights":[-7.162487E-2,-8.331047E-1,1.487847E-1,-9.426921E-1,-6.090153E-1,1.0331792E-2,6.99505E-1],"categories":[],"categories_nodes":[],"categories_segments":[],"categories_sizes":[],"default_left":[true,true,true,false,false,false,false],"id":110,"left_children":[1,3,5,-1,-1,-1,-1],"loss_changes":[2.923745E2,9.028412E0,1.0302385E2,0E0,0E0,0E0,0E0],"parents":[2147483647,0,0,1,1,2,2],"right_children":[2,4,6,-1,-1,-1,-1],"split_conditions":[7.082557E0,3.5506365E0,3.5468614E0,-4.7134604E-2,-3.0450765E-2,5.165896E-4,3.497525E-2],"split_indices":[6,6,0,0,0,0,0],"split_type":[0,0,0,0,0,0,0],"sum_hessian":[1.7402715E3,3.9002335E2,1.3502482E3,2.5977682E2,1.3024652E2,1.0798013E3,2.7044687E2],"tree_param":{"num_deleted":"0","num_feature":"7","num_nodes":"7","size_leaf_vector":"0"}},{"base_weights":[-5.889992E-2,2.608211E-1,-5.9995514E-1,6.2341973E-2,7.531074E-1,-8.009259E-1,-4.9972367E-1],"categories":[],"categories_nodes":[],"categories_segments":[],"categories_sizes":[],"default_left":[true,true,true,false,false,false,false],"id":111,"left_children":[1,3,5,-1,-1,-1,-1],"loss_changes":[2.9595496E2,1.0503997E2,1.2399689E1,0E0,0E0,0E0,0E0],"parents":[2147483647,0,0,1,1,2,2],"right_children":[2,4,6,-1,-1,-1,-1],"split_conditions":[5.6122234E4,3.2962873E0,8.707538E-3,3.1170987E-3,3.7655372E-2,-4.0046297E-2,-2.4986183E-2],"split_indices":[4,0,0,0,0,0,0],"split_type":[0,0,0,0,0,0,0],"sum_hessian":[1.708949E3,1.0745138E3,6.344351E2,7.6657434E2,3.0793948E2,2.0879549E2,4.2563965E2],"tree_param":{"num_deleted":"0","num_feature":"7","num_nodes":"7","size_leaf_vector":"0"}},{"base_weights":[-6.7562826E-2,-5.5829126E-1,3.0535465E-1,-8.2772803E-1,-3.0310112E-1,5.9701666E-2,6.1076105E-1],"categories":[],"categories_nodes":[],"categories_segments":[],"categories_sizes":[],"default_left":[true,true,false,false,false,false,false],"id":112,"left_children":[1,3,5,-1,-1,-1,-1],"loss_changes":[3.0907632E2,4.988867E1,7.1969826E1,0E0,0E0,0E0,0E0],"parents":[2147483647,0,0,1,1,2,2],"right_children":[2,4,6,-1,-1,-1,-1],"split_conditions":[6.15E1,4.5E0,2.855E2,-4.1386403E-2,-1.51550565E-2,2.9850833E-3,3.0538052E-2],"split_indices":[1,1,1,0,0,0,0],"split_type":[0,0,0,0,0,0,0],"sum_hessian":[1.6869988E3,7.2822205E2,9.587768E2,3.5313202E2,3.7509E2,5.320328E2,4.26744E2],"tree_param":{"num_deleted":"0","num_feature":"7","num_nodes":"7","size_leaf_vector":"0"}},{"base_weights":[-5.220799E-2,-7.937557E-1,1.7974332E-1,-9.216294E-1,-5.3251207E-1,2.8597789E-2,9.0830684E-1],"categories":[],"categories_nodes":[],"categories_segments":[],"categories_sizes":[],"default_left":[true,true,true,false,false,false,false],"id":113,"left_children":[1,3,5,-1,-1,-1,-1],"loss_changes":[2.9271292E2,1.30542755E1,1.4274297E2,0E0,0E0,0E0,0E0],"parents":[2147483647,0,0,1,1,2,2],"right_children":[2,4,6,-1,-1,-1,-1],"split_conditions":[5.033498E-1,4.4390184E-1,9.1721106E-1,-4.6081472E-2,-2.6625603E-2,1.4298895E-3,4.541534E-2],"split_indices":[2,2,2,0,0,0,0],"split_type":[0,0,0,0,0,0,0],"sum_hessian":[1.6999606E3,4.0446497E2,1.2954956E3,2.6985052E2,1.3461443E2,1.0737732E3,2.217224E2],"tree_param":{"num_deleted":"0","num_feature":"7","num_nodes":"7","size_leaf_vector":"0"}},{"base_weights":[-3.808583E-2,-8.5385007E-1,1.7398211E-1,-9.404357E-1,-6.233958E-1,-1.0648879E-1,4.559626E-1],"categories":[],"categories_nodes":[],"categories_segments":[],"categories_sizes":[],"default_left":[true,true,false,false,false,false,false],"id":114,"left_children":[1,3,5,-1,-1,-1,-1],"loss_changes":[2.9010532E2,6.317566E0,1.0532082E2,0E0,0E0,0E0,0E0],"parents":[2147483647,0,0,1,1,2,2],"right_children":[2,4,6,-1,-1,-1,-1],"split_conditions":[6.415555E0,3.7309399E0,2.5434746E1,-4.7021788E-2,-3.116979E-2,-5.3244396E-3,2.279813E-2],"split_indices":[6,6,6,0,0,0,0],"split_type":[0,0,0,0,0,0,0],"sum_hessian":[1.6750754E3,3.449863E2,1.3300891E3,2.4852893E2,9.6457375E1,6.6714154E2,6.6294763E2],"tree_param":{"num_deleted":"0","num_feature":"7","num_nodes":"7","size_leaf_vector":"0"}},{"base_weights":[-6.599155E-2,-6.5795153E-1,1.9647156E-1,-8.2572985E-1,-3.4448168E-1,4.7894478E-2,7.257568E-1],"categories":[],"categories_nodes":[],"categories_segments":[],"categories_sizes":[],"default_left":[true,true,false,false,false,false,false],"id":115,"left_children":[1,3,5,-1,-1,-1,-1],"loss_changes":[2.5770636E2,2.6511505E1,9.035072E1,0E0,0E0,0E0,0E0],"parents":[2147483647,0,0,1,1,2,2],"right_children":[2,4,6,-1,-1,-1,-1],"split_conditions":[2.75E1,4.5E0,4.255E2,-4.1286495E-2,-1.7224085E-2,2.394724E-3,3.628784E-2],"split_indices":[1,1,1,0,0,0,0],"split_type":[0,0,0,0,0,0,0],"sum_hessian":[1.6568551E3,5.0849268E2,1.1483624E3,3.301516E2,1.7834105E2,8.975104E2,2.5085205E2],"tree_param":{"num_deleted":"0","num_feature":"7","num_nodes":"7","size_leaf_vector":"0"}},{"base_weights":[-4.850379E-2,-6.5697694E-1,2.1970598E-1,-8.721167E-1,-3.576683E-1,1.4415911E-1,1E0],"categories":[],"categories_nodes":[],"categories_segments":[],"categories_sizes":[],"default_left":[true,true,false,false,false,false,false],"id":116,"left_children":[1,3,5,-1,-1,-1,-1],"loss_changes":[2.702612E2,3.231096E1,9.827669E1,0E0,0E0,0E0,0E0],"parents":[2147483647,0,0,1,1,2,2],"right_children":[2,4,6,-1,-1,-1,-1],"split_conditions":[2.85E1,2.5E0,9.685E2,-4.3605834E-2,-1.7883416E-2,7.2079557E-3,5E-2],"split_indices":[1,1,1,0,0,0,0],"split_type":[0,0,0,0,0,0,0],"sum_hessian":[1.6541436E3,5.0562033E2,1.1485232E3,2.93059E2,2.1256134E2,1.0900767E3,5.844659E1],"tree_param":{"num_deleted":"0","num_feature":"7","num_nodes":"7","size_leaf_vector":"0"}},{"base_weights":[-1.94686E-2,-2.8010774E-1,5.927153E-1,-5.440043E-1,1.563038E-1,1.7351587E-1,8.1326807E-1],"categories":[],"categories_nodes":[],"categories_segments":[],"categories_sizes":[],"default_left":[true,true,true,false,false,false,false],"id":117,"left_children":[1,3,5,-1,-1,-1,-1],"loss_changes":[2.641632E2,1.9545906E2,4.556836E1,0E0,0E0,0E0,0E0],"parents":[2147483647,0,0,1,1,2,2],"right_children":[2,4,6,-1,-1,-1,-1],"split_conditions":[8.103267E-1,3.311811E0,7.8658944E-1,-2.7200216E-2,7.81519E-3,8.675794E-3,4.0663403E-2],"split_indices":[2,0,0,0,0,0,0],"split_type":[0,0,0,0,0,0,0],"sum_hessian":[1.6535416E3,1.1601477E3,4.9339392E2,8.48517E2,3.116307E2,1.707121E2,3.2268182E2],"tree_param":{"num_deleted":"0","num_feature":"7","num_nodes":"7","size_leaf_vector":"0"}},{"base_weights":[-4.8625886E-2,-8.615894E-1,1.4043325E-1,-9.987119E-1,-7.726712E-1,-8.290812E-2,4.2181513E-1],"categories":[],"categories_nodes":[],"categories_segments":[],"categories_sizes":[],"default_left":[true,true,false,false,false,false,false],"id":118,"left_children":[1,3,5,-1,-1,-1,-1],"loss_changes":[2.5283168E2,3.012497E0,8.3921745E1,0E0,0E0,0E0,0E0],"parents":[2147483647,0,0,1,1,2,2],"right_children":[2,4,6,-1,-1,-1,-1],"split_conditions":[6.1850834E0,1.8585892E0,2.7385181E1,-4.9935594E-2,-3.8633563E-2,-4.1454057E-3,2.1090757E-2],"split_indices":[6,6,6,0,0,0,0],"split_type":[0,0,0,0,0,0,0],"sum_hessian":[1.6432009E3,3.093639E2,1.333837E3,1.1767031E2,1.9169359E2,7.440038E2,5.898332E2],"tree_param":{"num_deleted":"0","num_feature":"7","num_nodes":"7","size_leaf_vector":"0"}},{"base_weights":[-4.1014582E-2,2.4043015E-1,-5.549594E-1,6.677885E-2,6.820445E-1,-8.0777305E-1,-4.610481E-1],"categories":[],"categories_nodes":[],"categories_segments":[],"categories_sizes":[],"default_left":[true,true,true,false,false,false,false],"id":119,"left_children":[1,3,5,-1,-1,-1,-1],"loss_changes":[2.3636432E2,8.093338E1,1.3354904E1,0E0,0E0,0E0,0E0],"parents":[2147483647,0,0,1,1,2,2],"right_children":[2,4,6,-1,-1,-1,-1],"split_conditions":[5.8261684E4,3.2942426E0,2.4545854E-3,3.3389428E-3,3.4102228E-2,-4.0388655E-2,-2.3052406E-2],"split_indices":[4,0,0,0,0,0,0],"split_type":[0,0,0,0,0,0,0],"sum_hessian":[1.6321538E3,1.0549679E3,5.771858E2,7.580423E2,2.9692566E2,1.5427333E2,4.2291245E2],"tree_param":{"num_deleted":"0","num_feature":"7","num_nodes":"7","size_leaf_vector":"0"}},{"base_weights":[-4.596135E-2,-8.381948E-1,1.3632874E-1,-9.4021386E-1,-5.996827E-1,5.7609122E-6,5.896397E-1],"categories":[],"categories_nodes":[],"categories_segments":[],"categories_sizes":[],"default_left":[true,true,true,false,false,false,false],"id":120,"left_children":[1,3,5,-1,-1,-1,-1],"loss_changes":[2.3087502E2,6.712494E0,8.0326584E1,0E0,0E0,0E0,0E0],"parents":[2147483647,0,0,1,1,2,2],"right_children":[2,4,6,-1,-1,-1,-1],"split_conditions":[6.3991823E0,3.6309614E0,3.2942426E0,-4.7010694E-2,-2.9984135E-2,2.880456E-7,2.9481987E-2],"split_indices":[6,6,0,0,0,0,0],"split_type":[0,0,0,0,0,0,0],"sum_hessian":[1.5968856E3,2.980334E2,1.2988523E3,2.066855E2,9.134788E1,9.993273E2,2.99525E2],"tree_param":{"num_deleted":"0","num_feature":"7","num_nodes":"7","size_leaf_vector":"0"}},{"base_weights":[-3.3760086E-2,-7.9683226E-1,1.9495787E-1,-9.68511E-1,-4.7148484E-1,-4.7950312E-2,5.0694096E-1],"categories":[],"categories_nodes":[],"categories_segments":[],"categories_sizes":[],"default_left":[true,true,true,false,false,false,false],"id":121,"left_children":[1,3,5,-1,-1,-1,-1],"loss_changes":[2.7634875E2,1.9938446E1,9.2356445E1,0E0,0E0,0E0,0E0],"parents":[2147483647,0,0,1,1,2,2],"right_children":[2,4,6,-1,-1,-1,-1],"split_conditions":[5.0335E-1,4.4390106E-1,7.827412E-1,-4.842555E-2,-2.3574242E-2,-2.3975156E-3,2.5347048E-2],"split_indices":[2,2,2,0,0,0,0],"split_type":[0,0,0,0,0,0,0],"sum_hessian":[1.5815134E3,3.6414197E2,1.2173715E3,2.3706898E2,1.2707297E2,6.84933E2,5.324384E2],"tree_param":{"num_deleted":"0","num_feature":"7","num_nodes":"7","size_leaf_vector":"0"}},{"base_weights":[-4.4932526E-2,2.3123464E-1,-5.705492E-1,8.75157E-2,6.8038404E-1,-7.317528E-1,-5.0070316E-1],"categories":[],"categories_nodes":[],"categories_segments":[],"categories_sizes":[],"default_left":[true,true,true,false,false,false,false],"id":122,"left_children":[1,3,5,-1,-1,-1,-1],"loss_changes":[2.30834E2,6.724176E1,5.8005676E0,0E0,0E0,0E0,0E0],"parents":[2147483647,0,0,1,1,2,2],"right_children":[2,4,6,-1,-1,-1,-1],"split_conditions":[5.5869184E4,3.5367274E0,9.718087E-3,4.375785E-3,3.4019202E-2,-3.658764E-2,-2.5035158E-2],"split_indices":[4,0,0,0,0,0,0],"split_type":[0,0,0,0,0,0,0],"sum_hessian":[1.5883163E3,1.0416023E3,5.467139E2,7.9000964E2,2.5159265E2,1.6240628E2,3.8430765E2],"tree_param":{"num_deleted":"0","num_feature":"7","num_nodes":"7","size_leaf_vector":"0"}},{"base_weights":[-2.3450432E-2,-8.055748E-1,1.6335946E-1,-8.961547E-1,-3.5742047E-1,-7.773028E-2,3.9736393E-1],"categories":[],"categories_nodes":[],"categories_segments":[],"categories_sizes":[],"default_left":[true,true,false,false,false,false,false],"id":123,"left_children":[1,3,5,-1,-1,-1,-1],"loss_changes":[2.2799028E2,1.1892014E1,7.1096756E1,0E0,0E0,0E0,0E0],"parents":[2147483647,0,0,1,1,2,2],"right_children":[2,4,6,-1,-1,-1,-1],"split_conditions":[7.006185E0,5.104266E0,2.5588457E1,-4.4807736E-2,-1.7871024E-2,-3.886514E-3,1.9868197E-2],"split_indices":[6,6,6,0,0,0,0],"split_type":[0,0,0,0,0,0,0],"sum_hessian":[1.5585162E3,2.9984232E2,1.2586738E3,2.4859683E2,5.1245472E1,6.2028033E2,6.3839355E2],"tree_param":{"num_deleted":"0","num_feature":"7","num_nodes":"7","size_leaf_vector":"0"}},{"base_weights":[-3.840244E-2,-7.665698E-1,1.5552852E-1,-8.294458E-1,-4.187893E-1,2.1736033E-2,7.473133E-1],"categories":[],"categories_nodes":[],"categories_segments":[],"categories_sizes":[],"default_left":[true,true,true,false,false,false,false],"id":124,"left_children":[1,3,5,-1,-1,-1,-1],"loss_changes":[2.1964885E2,6.8058167E0,9.724914E1,0E0,0E0,0E0,0E0],"parents":[2147483647,0,0,1,1,2,2],"right_children":[2,4,6,-1,-1,-1,-1],"split_conditions":[4.9914682E-1,3.8765473E0,9.1721106E-1,-4.147229E-2,-2.0939466E-2,1.0868016E-3,3.7365668E-2],"split_indices":[2,0,2,0,0,0,0],"split_type":[0,0,0,0,0,0,0],"sum_hessian":[1.553586E3,3.261212E2,1.227465E3,2.750156E2,5.1105606E1,1.00197266E3,2.2549225E2],"tree_param":{"num_deleted":"0","num_feature":"7","num_nodes":"7","size_leaf_vector":"0"}},{"base_weights":[-3.7158772E-2,-4.7572005E-1,2.5507697E-1,-7.9687554E-1,-2.4074598E-1,1.9264102E-1,1E0],"categories":[],"categories_nodes":[],"categories_segments":[],"categories_sizes":[],"default_left":[true,true,false,false,false,false,false],"id":125,"left_children":[1,3,5,-1,-1,-1,-1],"loss_changes":[1.996936E2,4.6824814E1,6.3769203E1,0E0,0E0,0E0,0E0],"parents":[2147483647,0,0,1,1,2,2],"right_children":[2,4,6,-1,-1,-1,-1],"split_conditions":[6.25E1,3.5E0,1.1185E3,-3.984378E-2,-1.2037299E-2,9.632051E-3,5E-2],"split_indices":[1,1,1,0,0,0,0],"split_type":[0,0,0,0,0,0,0],"sum_hessian":[1.556172E3,6.2204083E2,9.341311E2,2.6181232E2,3.6022852E2,8.94455E2,3.967611E1],"tree_param":{"num_deleted":"0","num_feature":"7","num_nodes":"7","size_leaf_vector":"0"}},{"base_weights":[-3.5104156E-2,-7.8927034E-1,1.3824551E-1,-9.093484E-1,-4.7361523E-1,-7.345596E-2,3.8537347E-1],"categories":[],"categories_nodes":[],"categories_segments":[],"categories_sizes":[],"default_left":[true,true,false,false,false,false,false],"id":126,"left_children":[1,3,5,-1,-1,-1,-1],"loss_changes":[2.0325513E2,1.0582657E1,6.617409E1,0E0,0E0,0E0,0E0],"parents":[2147483647,0,0,1,1,2,2],"right_children":[2,4,6,-1,-1,-1,-1],"split_conditions":[7.398809E0,4.449624E0,2.7532923E1,-4.546742E-2,-2.3680761E-2,-3.672798E-3,1.9268675E-2],"split_indices":[6,6,6,0,0,0,0],"split_type":[0,0,0,0,0,0,0],"sum_hessian":[1.5528828E3,2.8956464E2,1.2633181E3,2.0840475E2,8.115989E1,6.8080835E2,5.8250977E2],"tree_param":{"num_deleted":"0","num_feature":"7","num_nodes":"7","size_leaf_vector":"0"}},{"base_weights":[-2.8294785E-2,-7.390476E-1,1.5615582E-1,-8.958761E-1,-4.1718313E-1,2.1357365E-2,6.588717E-1],"categories":[],"categories_nodes":[],"categories_segments":[],"categories_sizes":[],"default_left":[true,true,true,false,false,false,false],"id":127,"left_children":[1,3,5,-1,-1,-1,-1],"loss_changes":[2.0154648E2,1.5615326E1,8.270886E1,0E0,0E0,0E0,0E0],"parents":[2147483647,0,0,1,1,2,2],"right_children":[2,4,6,-1,-1,-1,-1],"split_conditions":[4.99148E-1,4.4390106E-1,3.2962873E0,-4.4793807E-2,-2.0859158E-2,1.0678683E-3,3.2943588E-2],"split_indices":[2,2,0,0,0,0,0],"split_type":[0,0,0,0,0,0,0],"sum_hessian":[1.535483E3,3.1575638E2,1.2197267E3,2.1110974E2,1.0464663E2,9.626451E2,2.570816E2],"tree_param":{"num_deleted":"0","num_feature":"7","num_nodes":"7",