{
    "learner": {
        "attributes": {},
        "feature_names": [
            "Lithology",
            "Slope",
            "pga",
            "gwetprof",
            "antecedent",
            "rain"
        ],
        "feature_types": [
            "int",
            "float",
            "float",
            "float",
            "float",
            "float"
        ],
        "gradient_booster": {
            "model": {
                "gbtree_model_param": {
                    "num_parallel_tree": "1",
                    "num_trees": "300"
                },
                "iteration_indptr": [
                    0,
                    1,
                    2,
                    3,
                    4,
                    5,
                    6,
                    7,
                    8,
                    9,
                    10,
                    11,
                    12,
                    13,
                    14,
                    15,
                    16,
                    17,
                    18,
                    19,
                    20,
                    21,
                    22,
                    23,
                    24,
                    25,
                    26,
                    27,
                    28,
                    29,
                    30,
                    31,
                    32,
                    33,
                    34,
                    35,
                    36,
                    37,
                    38,
                    39,
                    40,
                    41,
                    42,
                    43,
                    44,
                    45,
                    46,
                    47,
                    48,
                    49,
                    50,
                    51,
                    52,
                    53,
                    54,
                    55,
                    56,
                    57,
                    58,
                    59,
                    60,
                    61,
                    62,
                    63,
                    64,
                    65,
                    66,
                    67,
                    68,
                    69,
                    70,
                    71,
                    72,
                    73,
                    74,
                    75,
                    76,
                    77,
                    78,
                    79,
                    80,
                    81,
                    82,
                    83,
                    84,
                    85,
                    86,
                    87,
                    88,
                    89,
                    90,
                    91,
                    92,
                    93,
                    94,
                    95,
                    96,
                    97,
                    98,
                    99,
                    100,
                    101,
                    102,
                    103,
                    104,
                    105,
                    106,
                    107,
                    108,
                    109,
                    110,
                    111,
                    112,
                    113,
                    114,
                    115,
                    116,
                    117,
                    118,
                    119,
                    120,
                    121,
                    122,
                    123,
                    124,
                    125,
                    126,
                    127,
                    128,
                    129,
                    130,
                    131,
                    132,
                    133,
                    134,
                    135,
                    136,
                    137,
                    138,
                    139,
                    140,
                    141,
                    142,
                    143,
                    144,
                    145,
                    146,
                    147,
                    148,
                    149,
                    150,
                    151,
                    152,
                    153,
                    154,
                    155,
                    156,
                    157,
                    158,
                    159,
                    160,
                    161,
                    162,
                    163,
                    164,
                    165,
                    166,
                    167,
                    168,
                    169,
                    170,
                    171,
                    172,
                    173,
                    174,
                    175,
                    176,
                    177,
                    178,
                    179,
                    180,
                    181,
                    182,
                    183,
                    184,
                    185,
                    186,
                    187,
                    188,
                    189,
                    190,
                    191,
                    192,
                    193,
                    194,
                    195,
                    196,
                    197,
                    198,
                    199,
                    200,
                    201,
                    202,
                    203,
                    204,
                    205,
                    206,
                    207,
                    208,
                    209,
                    210,
                    211,
                    212,
                    213,
                    214,
                    215,
                    216,
                    217,
                    218,
                    219,
                    220,
                    221,
                    222,
                    223,
                    224,
                    225,
                    226,
                    227,
                    228,
                    229,
                    230,
                    231,
                    232,
                    233,
                    234,
                    235,
                    236,
                    237,
                    238,
                    239,
                    240,
                    241,
                    242,
                    243,
                    244,
                    245,
                    246,
                    247,
                    248,
                    249,
                    250,
                    251,
                    252,
                    253,
                    254,
                    255,
                    256,
                    257,
                    258,
                    259,
                    260,
                    261,
                    262,
                    263,
                    264,
                    265,
                    266,
                    267,
                    268,
                    269,
                    270,
                    271,
                    272,
                    273,
                    274,
                    275,
                    276,
                    277,
                    278,
                    279,
                    280,
                    281,
                    282,
                    283,
                    284,
                    285,
                    286,
                    287,
                    288,
                    289,
                    290,
                    291,
                    292,
                    293,
                    294,
                    295,
                    296,
                    297,
                    298,
                    299,
                    300
                ],
                "tree_info": [
                    0,
                    0,
                    0,
                    0,
                    0,
                    0,
                    0,
                    0,
                    0,
                    0,
                    0,
                    0,
                    0,
                    0,
                    0,
                    0,
                    0,
                    0,
                    0,
                    0,
                    0,
                    0,
                    0,
                    0,
                    0,
                    0,
                    0,
                    0,
                    0,
                    0,
                    0,
                    0,
                    0,
                    0,
                    0,
                    0,
                    0,
                    0,
                    0,
                    0,
                    0,
                    0,
                    0,
                    0,
                    0,
                    0,
                    0,
                    0,
                    0,
                    0,
                    0,
                    0,
                    0,
                    0,
                    0,
                    0,
                    0,
                    0,
                    0,
                    0,
                    0,
                    0,
                    0,
                    0,
                    0,
                    0,
                    0,
                    0,
                    0,
                    0,
                    0,
                    0,
                    0,
                    0,
                    0,
                    0,
                    0,
                    0,
                    0,
                    0,
                    0,
                    0,
                    0,
                    0,
                    0,
                    0,
                    0,
                    0,
                    0,
                    0,
                    0,
                    0,
                    0,
                    0,
                    0,
                    0,
                    0,
                    0,
                    0,
                    0,
                    0,
                    0,
                    0,
                    0,
                    0,
                    0,
                    0,
                    0,
                    0,
                    0,
                    0,
                    0,
                    0,
                    0,
                    0,
                    0,
                    0,
                    0,
                    0,
                    0,
                    0,
                    0,
                    0,
                    0,
                    0,
                    0,
                    0,
                    0,
                    0,
                    0,
                    0,
                    0,
                    0,
                    0,
                    0,
                    0,
                    0,
                    0,
                    0,
                    0,
                    0,
                    0,
                    0,
                    0,
                    0,
                    0,
                    0,
                    0,
                    0,
                    0,
                    0,
                    0,
                    0,
                    0,
                    0,
                    0,
                    0,
                    0,
                    0,
                    0,
                    0,
                    0,
                    0,
                    0,
                    0,
                    0,
                    0,
                    0,
                    0,
                    0,
                    0,
                    0,
                    0,
                    0,
                    0,
                    0,
                    0,
                    0,
                    0,
                    0,
                    0,
                    0,
                    0,
                    0,
                    0,
                    0,
                    0,
                    0,
                    0,
                    0,
                    0,
                    0,
                    0,
                    0,
                    0,
                    0,
                    0,
                    0,
                    0,
                    0,
                    0,
                    0,
                    0,
                    0,
                    0,
                    0,
                    0,
                    0,
                    0,
                    0,
                    0,
                    0,
                    0,
                    0,
                    0,
                    0,
                    0,
                    0,
                    0,
                    0,
                    0,
                    0,
                    0,
                    0,
                    0,
                    0,
                    0,
                    0,
                    0,
                    0,
                    0,
                    0,
                    0,
                    0,
                    0,
                    0,
                    0,
                    0,
                    0,
                    0,
                    0,
                    0,
                    0,
                    0,
                    0,
                    0,
                    0,
                    0,
                    0,
                    0,
                    0,
                    0,
                    0,
                    0,
                    0,
                    0,
                    0,
                    0,
                    0,
                    0,
                    0,
                    0,
                    0,
                    0,
                    0,
                    0,
                    0,
                    0,
                    0,
                    0,
                    0,
                    0,
                    0,
                    0,
                    0,
                    0,
                    0,
                    0,
                    0,
                    0,
                    0,
                    0,
                    0,
                    0,
                    0,
                    0,
                    0,
                    0,
                    0,
                    0,
                    0,
                    0,
                    0,
                    0,
                    0,
                    0,
                    0,
                    0,
                    0,
                    0
                ],
                "trees": [
                    {
                        "base_weights": [
                            -1E0,
                            -1E0,
                            1E0,
                            -1E0,
                            0E0,
                            0E0,
                            1E0
                        ],
                        "categories": [],
                        "categories_nodes": [],
                        "categories_segments": [],
                        "categories_sizes": [],
                        "default_left": [
                            1,
                            1,
                            1,
                            0,
                            0,
                            0,
                            0
                        ],
                        "id": 0,
                        "left_children": [
                            1,
                            3,
                            5,
                            -1,
                            -1,
                            -1,
                            -1
                        ],
                        "loss_changes": [
                            1.8369102E4,
                            7.302344E2,
                            5.2116504E2,
                            0E0,
                            0E0,
                            0E0,
                            0E0
                        ],
                        "parents": [
                            2147483647,
                            0,
                            0,
                            1,
                            1,
                            2,
                            2
                        ],
                        "right_children": [
                            2,
                            4,
                            6,
                            -1,
                            -1,
                            -1,
                            -1
                        ],
                        "split_conditions": [
                            5.440781E-1,
                            7.695E1,
                            7.5E-1,
                            -5E-2,
                            0E0,
                            0E0,
                            5E-2
                        ],
                        "split_indices": [
                            5,
                            4,
                            4,
                            0,
                            0,
                            0,
                            0
                        ],
                        "split_type": [
                            0,
                            0,
                            0,
                            0,
                            0,
                            0,
                            0
                        ],
                        "sum_hessian": [
                            8.274733E4,
                            8.146361E4,
                            1.2837136E3,
                            8.105592E4,
                            4.076857E2,
                            1.8971513E2,
                            1.0939984E3
                        ],
                        "tree_param": {
                            "num_deleted": "0",
                            "num_feature": "6",
                            "num_nodes": "7",
                            "size_leaf_vector": "1"
                        }
                    },
                    {
                        "base_weights": [
                            -1E0,
                            -1E0,
                            1E0,
                            -1E0,
                            0E0,
                            0E0,
                            1E0
                        ],
                        "categories": [],
                        "categories_nodes": [],
                        "categories_segments": [],
                        "categories_sizes": [],
                        "default_left": [
                            1,
                            1,
                            1,
                            0,
                            0,
                            0,
                            0
                        ],
                        "id": 1,
                        "left_children": [
                            1,
                            3,
                            5,
                            -1,
                            -1,
                            -1,
                            -1
                        ],
                        "loss_changes": [
                            1.787921E4,
                            7.342422E2,
                            5.328833E2,
                            0E0,
                            0E0,
                            0E0,
                            0E0
                        ],
                        "parents": [
                            2147483647,
                            0,
                            0,
                            1,
                            1,
                            2,
                            2
                        ],
                        "right_children": [
                            2,
                            4,
                            6,
                            -1,
                            -1,
                            -1,
                            -1
                        ],
                        "split_conditions": [
                            5.439237E-1,
                            7.695E1,
                            7.5E-1,
                            -5E-2,
                            0E0,
                            0E0,
                            5E-2
                        ],
                        "split_indices": [
                            5,
                            4,
                            4,
                            0,
                            0,
                            0,
                            0
                        ],
                        "split_type": [
                            0,
                            0,
                            0,
                            0,
                            0,
                            0,
                            0
                        ],
                        "sum_hessian": [
                            7.978012E4,
                            7.844986E4,
                            1.3302552E3,
                            7.8053086E4,
                            3.9677628E2,
                            1.9145659E2,
                            1.1387986E3
                        ],
                        "tree_param": {
                            "num_deleted": "0",
                            "num_feature": "6",
                            "num_nodes": "7",
                            "size_leaf_vector": "1"
                        }
                    },
                    {
                        "base_weights": [
                            -1E0,
                            -1E0,
                            1E0,
                            -1E0,
                            0E0,
                            0E0,
                            1E0
                        ],
                        "categories": [],
                        "categories_nodes": [],
                        "categories_segments": [],
                        "categories_sizes": [],
                        "default_left": [
                            1,
                            1,
                            1,
                            0,
                            0,
                            0,
                            0
                        ],
                        "id": 2,
                        "left_children": [
                            1,
                            3,
                            5,
                            -1,
                            -1,
                            -1,
                            -1
                        ],
                        "loss_changes": [
                            1.8278219E4,
                            7.7746094E2,
                            5.2668506E2,
                            0E0,
                            0E0,
                            0E0,
                            0E0
                        ],
                        "parents": [
                            2147483647,
                            0,
                            0,
                            1,
                            1,
                            2,
                            2
                        ],
                        "right_children": [
                            2,
                            4,
                            6,
                            -1,
                            -1,
                            -1,
                            -1
                        ],
                        "split_conditions": [
                            5.439286E-1,
                            7.705E1,
                            7.5E-1,
                            -5E-2,
                            0E0,
                            0E0,
                            5E-2
                        ],
                        "split_indices": [
                            5,
                            4,
                            4,
                            0,
                            0,
                            0,
                            0
                        ],
                        "split_type": [
                            0,
                            0,
                            0,
                            0,
                            0,
                            0,
                            0
                        ],
                        "sum_hessian": [
                            7.703742E4,
                            7.566184E4,
                            1.3755757E3,
                            7.5250445E4,
                            4.113949E2,
                            1.8774333E2,
                            1.1878324E3
                        ],
                        "tree_param": {
                            "num_deleted": "0",
                            "num_feature": "6",
                            "num_nodes": "7",
                            "size_leaf_vector": "1"
                        }
                    },
                    {
                        "base_weights": [
                            -9.950277E-1,
                            -1E0,
                            1E0,
                            -1E0,
                            0E0,
                            0E0,
                            1E0
                        ],
                        "categories": [],
                        "categories_nodes": [],
                        "categories_segments": [],
                        "categories_sizes": [],
                        "default_left": [
                            1,
                            1,
                            1,
                            0,
                            0,
                            0,
                            0
                        ],
                        "id": 3,
                        "left_children": [
                            1,
                            3,
                            5,
                            -1,
                            -1,
                            -1,
                            -1
                        ],
                        "loss_changes": [
                            1.775929E4,
                            7.157422E2,
                            5.4860254E2,
                            0E0,
                            0E0,
                            0E0,
                            0E0
                        ],
                        "parents": [
                            2147483647,
                            0,
                            0,
                            1,
                            1,
                            2,
                            2
                        ],
                        "right_children": [
                            2,
                            4,
                            6,
                            -1,
                            -1,
                            -1,
                            -1
                        ],
                        "split_conditions": [
                            5.439237E-1,
                            1.4475E2,
                            7.5E-1,
                            -5E-2,
                            0E0,
                            0E0,
                            5E-2
                        ],
                        "split_indices": [
                            5,
                            4,
                            4,
                            0,
                            0,
                            0,
                            0
                        ],
                        "split_type": [
                            0,
                            0,
                            0,
                            0,
                            0,
                            0,
                            0
                        ],
                        "sum_hessian": [
                            7.415449E4,
                            7.272845E4,
                            1.4260437E3,
                            7.265198E4,
                            7.647516E1,
                            1.9319806E2,
                            1.2328456E3
                        ],
                        "tree_param": {
                            "num_deleted": "0",
                            "num_feature": "6",
                            "num_nodes": "7",
                            "size_leaf_vector": "1"
                        }
                    },
                    {
                        "base_weights": [
                            -9.845457E-1,
                            -1E0,
                            1E0,
                            -1E0,
                            0E0,
                            0E0,
                            1E0
                        ],
                        "categories": [],
                        "categories_nodes": [],
                        "categories_segments": [],
                        "categories_sizes": [],
                        "default_left": [
                            1,
                            1,
                            1,
                            0,
                            0,
                            0,
                            0
                        ],
                        "id": 4,
                        "left_children": [
                            1,
                            3,
                            5,
                            -1,
                            -1,
                            -1,
                            -1
                        ],
                        "loss_changes": [
                            1.7300016E4,
                            7.079844E2,
                            5.467329E2,
                            0E0,
                            0E0,
                            0E0,
                            0E0
                        ],
                        "parents": [
                            2147483647,
                            0,
                            0,
                            1,
                            1,
                            2,
                            2
                        ],
                        "right_children": [
                            2,
                            4,
                            6,
                            -1,
                            -1,
                            -1,
                            -1
                        ],
                        "split_conditions": [
                            5.439286E-1,
                            1.2425E2,
                            7.5E-1,
                            -5E-2,
                            0E0,
                            0E0,
                            5E-2
                        ],
                        "split_indices": [
                            5,
                            4,
                            4,
                            0,
                            0,
                            0,
                            0
                        ],
                        "split_type": [
                            0,
                            0,
                            0,
                            0,
                            0,
                            0,
                            0
                        ],
                        "sum_hessian": [
                            7.133632E4,
                            6.987834E4,
                            1.4579769E3,
                            6.977216E4,
                            1.06191284E2,
                            1.9080203E2,
                            1.2671749E3
                        ],
                        "tree_param": {
                            "num_deleted": "0",
                            "num_feature": "6",
                            "num_nodes": "7",
                            "size_leaf_vector": "1"
                        }
                    },
                    {
                        "base_weights": [
                            -9.696515E-1,
                            -1E0,
                            1E0,
                            -1E0,
                            0E0,
                            0E0,
                            1E0
                        ],
                        "categories": [],
                        "categories_nodes": [],
                        "categories_segments": [],
                        "categories_sizes": [],
                        "default_left": [
                            1,
                            1,
                            1,
                            0,
                            0,
                            0,
                            0
                        ],
                        "id": 5,
                        "left_children": [
                            1,
                            3,
                            5,
                            -1,
                            -1,
                            -1,
                            -1
                        ],
                        "loss_changes": [
                            1.7620598E4,
                            8.3422656E2,
                            5.524365E2,
                            0E0,
                            0E0,
                            0E0,
                            0E0
                        ],
                        "parents": [
                            2147483647,
                            0,
                            0,
                            1,
                            1,
                            2,
                            2
                        ],
                        "right_children": [
                            2,
                            4,
                            6,
                            -1,
                            -1,
                            -1,
                            -1
                        ],
                        "split_conditions": [
                            5.4301846E-1,
                            7.705E1,
                            7.5E-1,
                            -5E-2,
                            0E0,
                            0E0,
                            5E-2
                        ],
                        "split_indices": [
                            5,
                            4,
                            4,
                            0,
                            0,
                            0,
                            0
                        ],
                        "split_type": [
                            0,
                            0,
                            0,
                            0,
                            0,
                            0,
                            0
                        ],
                        "sum_hessian": [
                            6.873017E4,
                            6.719589E4,
                            1.534283E3,
                            6.681323E4,
                            3.8266455E2,
                            1.937733E2,
                            1.3405096E3
                        ],
                        "tree_param": {
                            "num_deleted": "0",
                            "num_feature": "6",
                            "num_nodes": "7",
                            "size_leaf_vector": "1"
                        }
                    },
                    {
                        "base_weights": [
                            -9.6070224E-1,
                            -1E0,
                            1E0,
                            -1E0,
                            0E0,
                            0E0,
                            1E0
                        ],
                        "categories": [],
                        "categories_nodes": [],
                        "categories_segments": [],
                        "categories_sizes": [],
                        "default_left": [
                            1,
                            1,
                            1,
                            0,
                            0,
                            0,
                            0
                        ],
                        "id": 6,
                        "left_children": [
                            1,
                            3,
                            5,
                            -1,
                            -1,
                            -1,
                            -1
                        ],
                        "loss_changes": [
                            1.732977E4,
                            7.806875E2,
                            5.5133936E2,
                            0E0,
                            0E0,
                            0E0,
                            0E0
                        ],
                        "parents": [
                            2147483647,
                            0,
                            0,
                            1,
                            1,
                            2,
                            2
                        ],
                        "right_children": [
                            2,
                            4,
                            6,
                            -1,
                            -1,
                            -1,
                            -1
                        ],
                        "split_conditions": [
                            5.4302084E-1,
                            7.705E1,
                            7.5E-1,
                            -5E-2,
                            0E0,
                            0E0,
                            5E-2
                        ],
                        "split_indices": [
                            5,
                            4,
                            4,
                            0,
                            0,
                            0,
                            0
                        ],
                        "split_type": [
                            0,
                            0,
                            0,
                            0,
                            0,
                            0,
                            0
                        ],
                        "sum_hessian": [
                            6.612888E4,
                            6.455909E4,
                            1.5697958E3,
                            6.4175203E4,
                            3.8388925E2,
                            1.9160184E2,
                            1.378194E3
                        ],
                        "tree_param": {
                            "num_deleted": "0",
                            "num_feature": "6",
                            "num_nodes": "7",
                            "size_leaf_vector": "1"
                        }
                    },
                    {
                        "base_weights": [
                            -9.519029E-1,
                            -1E0,
                            1E0,
                            -1E0,
                            0E0,
                            0E0,
                            1E0
                        ],
                        "categories": [],
                        "categories_nodes": [],
                        "categories_segments": [],
                        "categories_sizes": [],
                        "default_left": [
                            1,
                            1,
                            1,
                            0,
                            0,
                            0,
                            0
                        ],
                        "id": 7,
                        "left_children": [
                            1,
                            3,
                            5,
                            -1,
                            -1,
                            -1,
                            -1
                        ],
                        "loss_changes": [
                            1.6641293E4,
                            7.6771875E2,
                            5.400166E2,
                            0E0,
                            0E0,
                            0E0,
                            0E0
                        ],
                        "parents": [
                            2147483647,
                            0,
                            0,
                            1,
                            1,
                            2,
                            2
                        ],
                        "right_children": [
                            2,
                            4,
                            6,
                            -1,
                            -1,
                            -1,
                            -1
                        ],
                        "split_conditions": [
                            5.439237E-1,
                            7.705E1,
                            7.5E-1,
                            -5E-2,
                            0E0,
                            0E0,
                            5E-2
                        ],
                        "split_indices": [
                            5,
                            4,
                            4,
                            0,
                            0,
                            0,
                            0
                        ],
                        "split_type": [
                            0,
                            0,
                            0,
                            0,
                            0,
                            0,
                            0
                        ],
                        "sum_hessian": [
                            6.3585727E4,
                            6.197676E4,
                            1.6089657E3,
                            6.1596844E4,
                            3.799152E2,
                            1.9058383E2,
                            1.4183818E3
                        ],
                        "tree_param": {
                            "num_deleted": "0",
                            "num_feature": "6",
                            "num_nodes": "7",
                            "size_leaf_vector": "1"
                        }
                    },
                    {
                        "base_weights": [
                            -9.419165E-1,
                            -1E0,
                            1E0,
                            -1E0,
                            0E0,
                            0E0,
                            1E0
                        ],
                        "categories": [],
                        "categories_nodes": [],
                        "categories_segments": [],
                        "categories_sizes": [],
                        "default_left": [
                            1,
                            1,
                            1,
                            0,
                            0,
                            0,
                            0
                        ],
                        "id": 8,
                        "left_children": [
                            1,
                            3,
                            5,
                            -1,
                            -1,
                            -1,
                            -1
                        ],
                        "loss_changes": [
                            1.6278055E4,
                            7.2396875E2,
                            5.536626E2,
                            0E0,
                            0E0,
                            0E0,
                            0E0
                        ],
                        "parents": [
                            2147483647,
                            0,
                            0,
                            1,
                            1,
                            2,
                            2
                        ],
                        "right_children": [
                            2,
                            4,
                            6,
                            -1,
                            -1,
                            -1,
                            -1
                        ],
                        "split_conditions": [
                            5.4301846E-1,
                            7.705E1,
                            7.5E-1,
                            -5E-2,
                            0E0,
                            0E0,
                            5E-2
                        ],
                        "split_indices": [
                            5,
                            4,
                            4,
                            0,
                            0,
                            0,
                            0
                        ],
                        "split_type": [
                            0,
                            0,
                            0,
                            0,
                            0,
                            0,
                            0
                        ],
                        "sum_hessian": [
                            6.117467E4,
                            5.9511504E4,
                            1.6631648E3,
                            5.9133387E4,
                            3.7811954E2,
                            1.9353842E2,
                            1.4696265E3
                        ],
                        "tree_param": {
                            "num_deleted": "0",
                            "num_feature": "6",
                            "num_nodes": "7",
                            "size_leaf_vector": "1"
                        }
                    },
                    {
                        "base_weights": [
                            -9.317492E-1,
                            -1E0,
                            1E0,
                            -1E0,
                            0E0,
                            0E0,
                            1E0
                        ],
                        "categories": [],
                        "categories_nodes": [],
                        "categories_segments": [],
                        "categories_sizes": [],
                        "default_left": [
                            1,
                            1,
                            1,
                            0,
                            0,
                            0,
                            0
                        ],
                        "id": 9,
                        "left_children": [
                            1,
                            3,
                            5,
                            -1,
                            -1,
                            -1,
                            -1
                        ],
                        "loss_changes": [
                            1.5928047E4,
                            7.711797E2,
                            5.8154004E2,
                            0E0,
                            0E0,
                            0E0,
                            0E0
                        ],
                        "parents": [
                            2147483647,
                            0,
                            0,
                            1,
                            1,
                            2,
                            2
                        ],
                        "right_children": [
                            2,
                            4,
                            6,
                            -1,
                            -1,
                            -1,
                            -1
                        ],
                        "split_conditions": [
                            5.439237E-1,
                            7.705E1,
                            5.5275697E-1,
                            -5E-2,
                            0E0,
                            0E0,
                            5E-2
                        ],
                        "split_indices": [
                            5,
                            4,
                            3,
                            0,
                            0,
                            0,
                            0
                        ],
                        "split_type": [
                            0,
                            0,
                            0,
                            0,
                            0,
                            0,
                            0
                        ],
                        "sum_hessian": [
                            5.8798E4,
                            5.7098758E4,
                            1.6992445E3,
                            5.6724773E4,
                            3.739821E2,
                            4.991374E2,
                            1.2001072E3
                        ],
                        "tree_param": {
                            "num_deleted": "0",
                            "num_feature": "6",
                            "num_nodes": "7",
                            "size_leaf_vector": "1"
                        }
                    },
                    {
                        "base_weights": [
                            -9.192976E-1,
                            -1E0,
                            1E0,
                            -1E0,
                            0E0,
                            0E0,
                            1E0
                        ],
                        "categories": [],
                        "categories_nodes": [],
                        "categories_segments": [],
                        "categories_sizes": [],
                        "default_left": [
                            1,
                            1,
                            1,
                            0,
                            0,
                            0,
                            0
                        ],
                        "id": 10,
                        "left_children": [
                            1,
                            3,
                            5,
                            -1,
                            -1,
                            -1,
                            -1
                        ],
                        "loss_changes": [
                            1.595975E4,
                            7.721953E2,
                            5.8123193E2,
                            0E0,
                            0E0,
                            0E0,
                            0E0
                        ],
                        "parents": [
                            2147483647,
                            0,
                            0,
                            1,
                            1,
                            2,
                            2
                        ],
                        "right_children": [
                            2,
                            4,
                            6,
                            -1,
                            -1,
                            -1,
                            -1
                        ],
                        "split_conditions": [
                            5.4407716E-1,
                            6.4850006E1,
                            5.5826235E-1,
                            -5E-2,
                            0E0,
                            0E0,
                            5E-2
                        ],
                        "split_indices": [
                            5,
                            4,
                            3,
                            0,
                            0,
                            0,
                            0
                        ],
                        "split_type": [
                            0,
                            0,
                            0,
                            0,
                            0,
                            0,
                            0
                        ],
                        "sum_hessian": [
                            5.655413E4,
                            5.4797086E4,
                            1.757041E3,
                            5.4263938E4,
                            5.331497E2,
                            5.305066E2,
                            1.2265344E3
                        ],
                        "tree_param": {
                            "num_deleted": "0",
                            "num_feature": "6",
                            "num_nodes": "7",
                            "size_leaf_vector": "1"
                        }
                    },
                    {
                        "base_weights": [
                            -9.083073E-1,
                            -1E0,
                            1E0,
                            -1E0,
                            0E0,
                            0E0,
                            1E0
                        ],
                        "categories": [],
                        "categories_nodes": [],
                        "categories_segments": [],
                        "categories_sizes": [],
                        "default_left": [
                            1,
                            1,
                            1,
                            0,
                            0,
                            0,
                            0
                        ],
                        "id": 11,
                        "left_children": [
                            1,
                            3,
                            5,
                            -1,
                            -1,
                            -1,
                            -1
                        ],
                        "loss_changes": [
                            1.5579566E4,
                            9.2777344E2,
                            4.9756982E2,
                            0E0,
                            0E0,
                            0E0,
                            0E0
                        ],
                        "parents": [
                            2147483647,
                            0,
                            0,
                            1,
                            1,
                            2,
                            2
                        ],
                        "right_children": [
                            2,
                            4,
                            6,
                            -1,
                            -1,
                            -1,
                            -1
                        ],
                        "split_conditions": [
                            5.7186615E-1,
                            5.805E1,
                            7.5E-1,
                            -5E-2,
                            0E0,
                            0E0,
                            5E-2
                        ],
                        "split_indices": [
                            5,
                            4,
                            4,
                            0,
                            0,
                            0,
                            0
                        ],
                        "split_type": [
                            0,
                            0,
                            0,
                            0,
                            0,
                            0,
                            0
                        ],
                        "sum_hessian": [
                            5.4340527E4,
                            5.265131E4,
                            1.6892174E3,
                            5.196484E4,
                            6.8646716E2,
                            1.8126096E2,
                            1.5079564E3
                        ],
                        "tree_param": {
                            "num_deleted": "0",
                            "num_feature": "6",
                            "num_nodes": "7",
                            "size_leaf_vector": "1"
                        }
                    },
                    {
                        "base_weights": [
                            -9.012753E-1,
                            -1E0,
                            1E0,
                            -1E0,
                            -4.3864843E-1,
                            0E0,
                            1E0
                        ],
                        "categories": [],
                        "categories_nodes": [],
                        "categories_segments": [],
                        "categories_sizes": [],
                        "default_left": [
                            1,
                            1,
                            1,
                            0,
                            0,
                            0,
                            0
                        ],
                        "id": 12,
                        "left_children": [
                            1,
                            3,
                            5,
                            -1,
                            -1,
                            -1,
                            -1
                        ],
                        "loss_changes": [
                            1.5022371E4,
                            8.3441797E2,
                            5.7548193E2,
                            0E0,
                            0E0,
                            0E0,
                            0E0
                        ],
                        "parents": [
                            2147483647,
                            0,
                            0,
                            1,
                            1,
                            2,
                            2
                        ],
                        "right_children": [
                            2,
                            4,
                            6,
                            -1,
                            -1,
                            -1,
                            -1
                        ],
                        "split_conditions": [
                            5.3971887E-1,
                            1.6744706E-1,
                            5.6582963E-1,
                            -5E-2,
                            -2.1932421E-2,
                            0E0,
                            5E-2
                        ],
                        "split_indices": [
                            5,
                            5,
                            3,
                            0,
                            0,
                            0,
                            0
                        ],
                        "split_type": [
                            0,
                            0,
                            0,
                            0,
                            0,
                            0,
                            0
                        ],
                        "sum_hessian": [
                            5.2204863E4,
                            5.0396035E4,
                            1.8088281E3,
                            4.7745895E4,
                            2.65014E3,
                            5.3344196E2,
                            1.2753861E3
                        ],
                        "tree_param": {
                            "num_deleted": "0",
                            "num_feature": "6",
                            "num_nodes": "7",
                            "size_leaf_vector": "1"
                        }
                    },
                    {
                        "base_weights": [
                            -8.8980925E-1,
                            -1E0,
                            1E0,
                            -1E0,
                            0E0,
                            0E0,
                            1E0
                        ],
                        "categories": [],
                        "categories_nodes": [],
                        "categories_segments": [],
                        "categories_sizes": [],
                        "default_left": [
                            1,
                            1,
                            1,
                            0,
                            0,
                            0,
                            0
                        ],
                        "id": 13,
                        "left_children": [
                            1,
                            3,
                            5,
                            -1,
                            -1,
                            -1,
                            -1
                        ],
                        "loss_changes": [
                            1.4881277E4,
                            9.3716797E2,
                            4.7390967E2,
                            0E0,
                            0E0,
                            0E0,
                            0E0
                        ],
                        "parents": [
                            2147483647,
                            0,
                            0,
                            1,
                            1,
                            2,
                            2
                        ],
                        "right_children": [
                            2,
                            4,
                            6,
                            -1,
                            -1,
                            -1,
                            -1
                        ],
                        "split_conditions": [
                            5.718894E-1,
                            6.475E1,
                            7.5E-1,
                            -5E-2,
                            0E0,
                            0E0,
                            5E-2
                        ],
                        "split_indices": [
                            5,
                            4,
                            4,
                            0,
                            0,
                            0,
                            0
                        ],
                        "split_type": [
                            0,
                            0,
                            0,
                            0,
                            0,
                            0,
                            0
                        ],
                        "sum_hessian": [
                            5.0190332E4,
                            4.8443918E4,
                            1.7464142E3,
                            4.789817E4,
                            5.457446E2,
                            1.7496007E2,
                            1.5714541E3
                        ],
                        "tree_param": {
                            "num_deleted": "0",
                            "num_feature": "6",
                            "num_nodes": "7",
                            "size_leaf_vector": "1"
                        }
                    },
                    {
                        "base_weights": [
                            -8.7927353E-1,
                            -9.9453205E-1,
                            1E0,
                            -1E0,
                            -2.3059492E-1,
                            1.5723152E-2,
                            1E0
                        ],
                        "categories": [],
                        "categories_nodes": [],
                        "categories_segments": [],
                        "categories_sizes": [],
                        "default_left": [
                            1,
                            1,
                            1,
                            0,
                            0,
                            0,
                            0
                        ],
                        "id": 14,
                        "left_children": [
                            1,
                            3,
                            5,
                            -1,
                            -1,
                            -1,
                            -1
                        ],
                        "loss_changes": [
                            1.4318199E4,
                            1.0290742E3,
                            5.0539697E2,
                            0E0,
                            0E0,
                            0E0,
                            0E0
                        ],
                        "parents": [
                            2147483647,
                            0,
                            0,
                            1,
                            1,
                            2,
                            2
                        ],
                        "right_children": [
                            2,
                            4,
                            6,
                            -1,
                            -1,
                            -1,
                            -1
                        ],
                        "split_conditions": [
                            5.7186615E-1,
                            2.2154444E-1,
                            5.6650984E-1,
                            -5E-2,
                            -1.1529746E-2,
                            7.861576E-4,
                            5E-2
                        ],
                        "split_indices": [
                            5,
                            5,
                            3,
                            0,
                            0,
                            0,
                            0
                        ],
                        "split_type": [
                            0,
                            0,
                            0,
                            0,
                            0,
                            0,
                            0
                        ],
                        "sum_hessian": [
                            4.8176215E4,
                            4.6368492E4,
                            1.8077229E3,
                            4.4627113E4,
                            1.7413783E3,
                            5.217045E2,
                            1.2860183E3
                        ],
                        "tree_param": {
                            "num_deleted": "0",
                            "num_feature": "6",
                            "num_nodes": "7",
                            "size_leaf_vector": "1"
                        }
                    },
                    {
                        "base_weights": [
                            -8.682086E-1,
                            -1E0,
                            1E0,
                            -1E0,
                            -5.255729E-1,
                            0E0,
                            1E0
                        ],
                        "categories": [],
                        "categories_nodes": [],
                        "categories_segments": [],
                        "categories_sizes": [],
                        "default_left": [
                            1,
                            1,
                            1,
                            0,
                            0,
                            0,
                            0
                        ],
                        "id": 15,
                        "left_children": [
                            1,
                            3,
                            5,
                            -1,
                            -1,
                            -1,
                            -1
                        ],
                        "loss_changes": [
                            1.4275027E4,
                            3.9452344E2,
                            1.6225645E3,
                            0E0,
                            0E0,
                            0E0,
                            0E0
                        ],
                        "parents": [
                            2147483647,
                            0,
                            0,
                            1,
                            1,
                            2,
                            2
                        ],
                        "right_children": [
                            2,
                            4,
                            6,
                            -1,
                            -1,
                            -1,
                            -1
                        ],
                        "split_conditions": [
                            3.2972705E-1,
                            1.6746005E-1,
                            6.693022E-1,
                            -5E-2,
                            -2.6278645E-2,
                            0E0,
                            5E-2
                        ],
                        "split_indices": [
                            5,
                            5,
                            3,
                            0,
                            0,
                            0,
                            0
                        ],
                        "split_type": [
                            0,
                            0,
                            0,
                            0,
                            0,
                            0,
                            0
                        ],
                        "sum_hessian": [
                            4.6411754E4,
                            4.376478E4,
                            2.6469722E3,
                            4.200855E4,
                            1.7562308E3,
                            1.2217047E3,
                            1.4252675E3
                        ],
                        "tree_param": {
                            "num_deleted": "0",
                            "num_feature": "6",
                            "num_nodes": "7",
                            "size_leaf_vector": "1"
                        }
                    },
                    {
                        "base_weights": [
                            -8.5802245E-1,
                            -9.808897E-1,
                            1E0,
                            -1E0,
                            -3.5677823E-1,
                            9.555161E-3,
                            1E0
                        ],
                        "categories": [],
                        "categories_nodes": [],
                        "categories_segments": [],
                        "categories_sizes": [],
                        "default_left": [
                            1,
                            1,
                            1,
                            0,
                            0,
                            0,
                            0
                        ],
                        "id": 16,
                        "left_children": [
                            1,
                            3,
                            5,
                            -1,
                            -1,
                            -1,
                            -1
                        ],
                        "loss_changes": [
                            1.3701684E4,
                            1.0278633E3,
                            5.1672266E2,
                            0E0,
                            0E0,
                            0E0,
                            0E0
                        ],
                        "parents": [
                            2147483647,
                            0,
                            0,
                            1,
                            1,
                            2,
                            2
                        ],
                        "right_children": [
                            2,
                            4,
                            6,
                            -1,
                            -1,
                            -1,
                            -1
                        ],
                        "split_conditions": [
                            5.718894E-1,
                            1.6744687E-1,
                            7.5E-1,
                            -5E-2,
                            -1.7838912E-2,
                            4.7775806E-4,
                            5E-2
                        ],
                        "split_indices": [
                            5,
                            5,
                            4,
                            0,
                            0,
                            0,
                            0
                        ],
                        "split_type": [
                            0,
                            0,
                            0,
                            0,
                            0,
                            0,
                            0
                        ],
                        "sum_hessian": [
                            4.455045E4,
                            4.268722E4,
                            1.8632324E3,
                            4.016377E4,
                            2.5234458E3,
                            1.8218498E2,
                            1.6810474E3
                        ],
                        "tree_param": {
                            "num_deleted": "0",
                            "num_feature": "6",
                            "num_nodes": "7",
                            "size_leaf_vector": "1"
                        }
                    },
                    {
                        "base_weights": [
                            -8.445542E-1,
                            -9.9363357E-1,
                            1E0,
                            -1E0,
                            -5.015551E-1,
                            3.1832159E-3,
                            1E0
                        ],
                        "categories": [],
                        "categories_nodes": [],
                        "categories_segments": [],
                        "categories_sizes": [],
                        "default_left": [
                            1,
                            1,
                            1,
                            0,
                            0,
                            0,
                            0
                        ],
                        "id": 17,
                        "left_children": [
                            1,
                            3,
                            5,
                            -1,
                            -1,
                            -1,
                            -1
                        ],
                        "loss_changes": [
                            1.3610496E4,
                            4.1479688E2,
                            1.643165E3,
                            0E0,
                            0E0,
                            0E0,
                            0E0
                        ],
                        "parents": [
                            2147483647,
                            0,
                            0,
                            1,
                            1,
                            2,
                            2
                        ],
                        "right_children": [
                            2,
                            4,
                            6,
                            -1,
                            -1,
                            -1,
                            -1
                        ],
                        "split_conditions": [
                            3.2972705E-1,
                            1.676242E-1,
                            1.06118965E1,
                            -5E-2,
                            -2.5077755E-2,
                            1.591608E-4,
                            5E-2
                        ],
                        "split_indices": [
                            5,
                            5,
                            1,
                            0,
                            0,
                            0,
                            0
                        ],
                        "split_type": [
                            0,
                            0,
                            0,
                            0,
                            0,
                            0,
                            0
                        ],
                        "sum_hessian": [
                            4.281999E4,
                            4.0079957E4,
                            2.7400295E3,
                            3.8400797E4,
                            1.6791588E3,
                            1.2135144E3,
                            1.5265151E3
                        ],
                        "tree_param": {
                            "num_deleted": "0",
                            "num_feature": "6",
                            "num_nodes": "7",
                            "size_leaf_vector": "1"
                        }
                    },
                    {
                        "base_weights": [
                            -8.387355E-1,
                            -9.706386E-1,
                            1E0,
                            -1E0,
                            -3.3785647E-1,
                            1.4680713E-2,
                            1E0
                        ],
                        "categories": [],
                        "categories_nodes": [],
                        "categories_segments": [],
                        "categories_sizes": [],
                        "default_left": [
                            1,
                            1,
                            1,
                            0,
                            0,
                            0,
                            0
                        ],
                        "id": 18,
                        "left_children": [
                            1,
                            3,
                            5,
                            -1,
                            -1,
                            -1,
                            -1
                        ],
                        "loss_changes": [
                            1.2748453E4,
                            9.941172E2,
                            7.2740967E2,
                            0E0,
                            0E0,
                            0E0,
                            0E0
                        ],
                        "parents": [
                            2147483647,
                            0,
                            0,
                            1,
                            1,
                            2,
                            2
                        ],
                        "right_children": [
                            2,
                            4,
                            6,
                            -1,
                            -1,
                            -1,
                            -1
                        ],
                        "split_conditions": [
                            5.3971887E-1,
                            1.676242E-1,
                            5.658213E-1,
                            -5E-2,
                            -1.6892824E-2,
                            7.340357E-4,
                            5E-2
                        ],
                        "split_indices": [
                            5,
                            5,
                            3,
                            0,
                            0,
                            0,
                            0
                        ],
                        "split_type": [
                            0,
                            0,
                            0,
                            0,
                            0,
                            0,
                            0
                        ],
                        "sum_hessian": [
                            4.121454E4,
                            3.916479E4,
                            2.0497507E3,
                            3.681908E4,
                            2.3457078E3,
                            5.858704E2,
                            1.4638804E3
                        ],
                        "tree_param": {
                            "num_deleted": "0",
                            "num_feature": "6",
                            "num_nodes": "7",
                            "size_leaf_vector": "1"
                        }
                    },
                    {
                        "base_weights": [
                            -8.272488E-1,
                            -9.60548E-1,
                            1E0,
                            -1E0,
                            -2.9475987E-1,
                            1.9726008E-2,
                            1E0
                        ],
                        "categories": [],
                        "categories_nodes": [],
                        "categories_segments": [],
                        "categories_sizes": [],
                        "default_left": [
                            1,
                            1,
                            1,
                            0,
                            0,
                            0,
                            0
                        ],
                        "id": 19,
                        "left_children": [
                            1,
                            3,
                            5,
                            -1,
                            -1,
                            -1,
                            -1
                        ],
                        "loss_changes": [
                            1.2351432E4,
                            1.1206992E3,
                            6.090132E2,
                            0E0,
                            0E0,
                            0E0,
                            0E0
                        ],
                        "parents": [
                            2147483647,
                            0,
                            0,
                            1,
                            1,
                            2,
                            2
                        ],
                        "right_children": [
                            2,
                            4,
                            6,
                            -1,
                            -1,
                            -1,
                            -1
                        ],
                        "split_conditions": [
                            5.716324E-1,
                            1.7003314E-1,
                            5.665963E-1,
                            -5E-2,
                            -1.47379935E-2,
                            9.863004E-4,
                            5E-2
                        ],
                        "split_indices": [
                            5,
                            5,
                            3,
                            0,
                            0,
                            0,
                            0
                        ],
                        "split_type": [
                            0,
                            0,
                            0,
                            0,
                            0,
                            0,
                            0
                        ],
                        "sum_hessian": [
                            3.9550984E4,
                            3.7569125E4,
                            1.9818591E3,
                            3.5197266E4,
                            2.3718604E3,
                            5.5604846E2,
                            1.4258107E3
                        ],
                        "tree_param": {
                            "num_deleted": "0",
                            "num_feature": "6",
                            "num_nodes": "7",
                            "size_leaf_vector": "1"
                        }
                    },
                    {
                        "base_weights": [
                            -8.1485486E-1,
                            -9.766749E-1,
                            1E0,
                            -1E0,
                            -7.036204E-1,
                            1.1662543E-2,
                            1E0
                        ],
                        "categories": [],
                        "categories_nodes": [],
                        "categories_segments": [],
                        "categories_sizes": [],
                        "default_left": [
                            1,
                            1,
                            1,
                            0,
                            0,
                            0,
                            0
                        ],
                        "id": 20,
                        "left_children": [
                            1,
                            3,
                            5,
                            -1,
                            -1,
                            -1,
                            -1
                        ],
                        "loss_changes": [
                            1.2294602E4,
                            4.406953E2,
                            1.8065037E3,
                            0E0,
                            0E0,
                            0E0,
                            0E0
                        ],
                        "parents": [
                            2147483647,
                            0,
                            0,
                            1,
                            1,
                            2,
                            2
                        ],
                        "right_children": [
                            2,
                            4,
                            6,
                            -1,
                            -1,
                            -1,
                            -1
                        ],
                        "split_conditions": [
                            3.2972705E-1,
                            8.35E0,
                            6.6929305E-1,
                            -5E-2,
                            -3.518102E-2,
                            5.8312714E-4,
                            5E-2
                        ],
                        "split_indices": [
                            5,
                            4,
                            3,
                            0,
                            0,
                            0,
                            0
                        ],
                        "split_type": [
                            0,
                            0,
                            0,
                            0,
                            0,
                            0,
                            0
                        ],
                        "sum_hessian": [
                            3.799422E4,
                            3.517479E4,
                            2.81943E3,
                            2.9929553E4,
                            5.245234E3,
                            1.2608064E3,
                            1.5586235E3
                        ],
                        "tree_param": {
                            "num_deleted": "0",
                            "num_feature": "6",
                            "num_nodes": "7",
                            "size_leaf_vector": "1"
                        }
                    },
                    {
                        "base_weights": [
                            -8.057962E-1,
                            -9.501374E-1,
                            1E0,
                            -9.9592775E-1,
                            -2.8927952E-1,
                            2.5184222E-2,
                            1E0
                        ],
                        "categories": [],
                        "categories_nodes": [],
                        "categories_segments": [],
                        "categories_sizes": [],
                        "default_left": [
                            1,
                            1,
                            1,
                            0,
                            0,
                            0,
                            0
                        ],
                        "id": 21,
                        "left_children": [
                            1,
                            3,
                            5,
                            -1,
                            -1,
                            -1,
                            -1
                        ],
                        "loss_changes": [
                            1.1678781E4,
                            1.0411016E3,
                            7.764165E2,
                            0E0,
                            0E0,
                            0E0,
                            0E0
                        ],
                        "parents": [
                            2147483647,
                            0,
                            0,
                            1,
                            1,
                            2,
                            2
                        ],
                        "right_children": [
                            2,
                            4,
                            6,
                            -1,
                            -1,
                            -1,
                            -1
                        ],
                        "split_conditions": [
                            5.397221E-1,
                            1.6743359E-1,
                            6.561038E-2,
                            -4.9796388E-2,
                            -1.4463976E-2,
                            1.2592111E-3,
                            5E-2
                        ],
                        "split_indices": [
                            5,
                            5,
                            2,
                            0,
                            0,
                            0,
                            0
                        ],
                        "split_type": [
                            0,
                            0,
                            0,
                            0,
                            0,
                            0,
                            0
                        ],
                        "sum_hessian": [
                            3.655214E4,
                            3.441254E4,
                            2.1396013E3,
                            3.218215E4,
                            2.2303865E3,
                            8.171051E2,
                            1.3224963E3
                        ],
                        "tree_param": {
                            "num_deleted": "0",
                            "num_feature": "6",
                            "num_nodes": "7",
                            "size_leaf_vector": "1"
                        }
                    },
                    {
                        "base_weights": [
                            -7.944861E-1,
                            -9.415464E-1,
                            1E0,
                            -9.90963E-1,
                            -2.8774387E-1,
                            2.922681E-2,
                            1E0
                        ],
                        "categories": [],
                        "categories_nodes": [],
                        "categories_segments": [],
                        "categories_sizes": [],
                        "default_left": [
                            1,
                            1,
                            1,
                            0,
                            0,
                            0,
                            0
                        ],
                        "id": 22,
                        "left_children": [
                            1,
                            3,
                            5,
                            -1,
                            -1,
                            -1,
                            -1
                        ],
                        "loss_changes": [
                            1.14991E4,
                            1.0682578E3,
                            6.2498E2,
                            0E0,
                            0E0,
                            0E0,
                            0E0
                        ],
                        "parents": [
                            2147483647,
                            0,
                            0,
                            1,
                            1,
                            2,
                            2
                        ],
                        "right_children": [
                            2,
                            4,
                            6,
                            -1,
                            -1,
                            -1,
                            -1
                        ],
                        "split_conditions": [
                            5.716324E-1,
                            1.6743079E-1,
                            5.6582963E-1,
                            -4.954815E-2,
                            -1.4387193E-2,
                            1.4613405E-3,
                            5E-2
                        ],
                        "split_indices": [
                            5,
                            5,
                            3,
                            0,
                            0,
                            0,
                            0
                        ],
                        "split_type": [
                            0,
                            0,
                            0,
                            0,
                            0,
                            0,
                            0
                        ],
                        "sum_hessian": [
                            3.51434E4,
                            3.3071824E4,
                            2.0715725E3,
                            3.0747324E4,
                            2.324501E3,
                            5.459415E2,
                            1.525631E3
                        ],
                        "tree_param": {
                            "num_deleted": "0",
                            "num_feature": "6",
                            "num_nodes": "7",
                            "size_leaf_vector": "1"
                        }
                    },
                    {
                        "base_weights": [
                            -7.8188276E-1,
                            -9.5934486E-1,
                            1E0,
                            -1E0,
                            -6.6447806E-1,
                            2.0327568E-2,
                            1E0
                        ],
                        "categories": [],
                        "categories_nodes": [],
                        "categories_segments": [],
                        "categories_sizes": [],
                        "default_left": [
                            1,
                            1,
                            1,
                            0,
                            0,
                            0,
                            0
                        ],
                        "id": 23,
                        "left_children": [
                            1,
                            3,
                            5,
                            -1,
                            -1,
                            -1,
                            -1
                        ],
                        "loss_changes": [
                            1.1233512E4,
                            4.7426172E2,
                            1.8190173E3,
                            0E0,
                            0E0,
                            0E0,
                            0E0
                        ],
                        "parents": [
                            2147483647,
                            0,
                            0,
                            1,
                            1,
                            2,
                            2
                        ],
                        "right_children": [
                            2,
                            4,
                            6,
                            -1,
                            -1,
                            -1,
                            -1
                        ],
                        "split_conditions": [
                            3.2966578E-1,
                            8.35E0,
                            1.0207389E1,
                            -5E-2,
                            -3.3223905E-2,
                            1.0163784E-3,
                            5E-2
                        ],
                        "split_indices": [
                            5,
                            4,
                            1,
                            0,
                            0,
                            0,
                            0
